{"learner":{"attributes":{"scikit_learn":"{\"_estimator_type\": \"regressor\"}"},"feature_names":["daily_return","volume_change","volatility_7","ma_slope_7","rsi_14","macd","macd_signal","macd_hist"],"feature_types":["float","float","float","float","float","float","float","float"],"gradient_booster":{"model":{"gbtree_model_param":{"num_parallel_tree":"1","num_trees":"350"},"iteration_indptr":[0,1,2,3,4,5,6,7,8,9,10,11,12,13,14,15,16,17,18,19,20,21,22,23,24,25,26,27,28,29,30,31,32,33,34,35,36,37,38,39,40,41,42,43,44,45,46,47,48,49,50,51,52,53,54,55,56,57,58,59,60,61,62,63,64,65,66,67,68,69,70,71,72,73,74,75,76,77,78,79,80,81,82,83,84,85,86,87,88,89,90,91,92,93,94,95,96,97,98,99,100,101,102,103,104,105,106,107,108,109,110,111,112,113,114,115,116,117,118,119,120,121,122,123,124,125,126,127,128,129,130,131,132,133,134,135,136,137,138,139,140,141,142,143,144,145,146,147,148,149,150,151,152,153,154,155,156,157,158,159,160,161,162,163,164,165,166,167,168,169,170,171,172,173,174,175,176,177,178,179,180,181,182,183,184,185,186,187,188,189,190,191,192,193,194,195,196,197,198,199,200,201,202,203,204,205,206,207,208,209,210,211,212,213,214,215,216,217,218,219,220,221,222,223,224,225,226,227,228,229,230,231,232,233,234,235,236,237,238,239,240,241,242,243,244,245,246,247,248,249,250,251,252,253,254,255,256,257,258,259,260,261,262,263,264,265,266,267,268,269,270,271,272,273,274,275,276,277,278,279,280,281,282,283,284,285,286,287,288,289,290,291,292,293,294,295,296,297,298,299,300,301,302,303,304,305,306,307,308,309,310,311,312,313,314,315,316,317,318,319,320,321,322,323,324,325,326,327,328,329,330,331,332,333,334,335,336,337,338,339,340,341,342,343,344,345,346,347,348,349,350],"tree_info":[0,0,0,0,0,0,0,0,0,0,0,0,0,0,0,0,0,0,0,0,0,0,0,0,0,0,0,0,0,0,0,0,0,0,0,0,0,0,0,0,0,0,0,0,0,0,0,0,0,0,0,0,0,0,0,0,0,0,0,0,0,0,0,0,0,0,0,0,0,0,0,0,0,0,0,0,0,0,0,0,0,0,0,0,0,0,0,0,0,0,0,0,0,0,0,0,0,0,0,0,0,0,0,0,0,0,0,0,0,0,0,0,0,0,0,0,0,0,0,0,0,0,0,0,0,0,0,0,0,0,0,0,0,0,0,0,0,0,0,0,0,0,0,0,0,0,0,0,0,0,0,0,0,0,0,0,0,0,0,0,0,0,0,0,0,0,0,0,0,0,0,0,0,0,0,0,0,0,0,0,0,0,0,0,0,0,0,0,0,0,0,0,0,0,0,0,0,0,0,0,0,0,0,0,0,0,0,0,0,0,0,0,0,0,0,0,0,0,0,0,0,0,0,0,0,0,0,0,0,0,0,0,0,0,0,0,0,0,0,0,0,0,0,0,0,0,0,0,0,0,0,0,0,0,0,0,0,0,0,0,0,0,0,0,0,0,0,0,0,0,0,0,0,0,0,0,0,0,0,0,0,0,0,0,0,0,0,0,0,0,0,0,0,0,0,0,0,0,0,0,0,0,0,0,0,0,0,0,0,0,0,0,0,0,0,0,0,0,0,0,0,0,0,0,0,0,0,0,0,0,0,0,0,0,0,0,0,0,0,0,0,0,0,0,0,0,0,0,0,0],"trees":[{"base_weights":[9.221197E0,-4.3838757E1,8.3586945E1,-9.321207E1,-1.8025505E1,4.5803885E0,7.8102624E-1,-5.0544257E0,-9.519226E-1,-3.0694317E1,1.8518505E1,-1.5337429E1,-5.2197853E1,1.4036316E0,-4.9244997E-1,-1.7727661E-1,-1.0321229E0,-3.070816E0,-3.8309938E-1],"categories":[],"categories_nodes":[],"categories_segments":[],"categories_sizes":[],"default_left":[0,0,0,0,0,0,0,0,0,0,0,0,0,0,0,0,0,0,0],"id":0,"left_children":[1,3,5,7,9,-1,-1,-1,-1,11,13,15,17,-1,-1,-1,-1,-1,-1],"loss_changes":[1.6149806E5,2.8907457E4,7.8365312E3,2.7492266E3,8.438889E3,0E0,0E0,0E0,0E0,3.492375E3,1.6316207E3,4.898186E2,1.5821914E3,0E0,0E0,0E0,0E0,0E0,0E0],"parents":[2147483647,0,0,1,1,2,2,3,3,4,4,9,9,10,10,11,11,12,12],"right_children":[2,4,6,8,10,-1,-1,-1,-1,12,14,16,18,-1,-1,-1,-1,-1,-1],"split_conditions":[5.1899033E1,-9.816589E0,2.446052E-2,1.2407552E-2,7.158704E-3,4.5803885E0,7.8102624E-1,-5.0544257E0,-9.519226E-1,4.022337E1,1.5620303E-2,-1.1534876E-2,4.7785435E0,1.4036316E0,-4.9244997E-1,-1.7727661E-1,-1.0321229E0,-3.070816E0,-3.8309938E-1],"split_indices":[4,5,2,0,0,0,0,0,0,4,2,0,1,0,0,0,0,0,0],"split_type":[0,0,0,0,0,0,0,0,0,0,0,0,0,0,0,0,0,0,0],"sum_hessian":[3.9E1,2.3E1,1.6E1,7E0,1.6E1,1.4E1,2E0,6E0,1E0,1.2E1,4E0,8E0,4E0,3E0,1E0,3E0,5E0,3E0,1E0],"tree_param":{"num_deleted":"0","num_feature":"8","num_nodes":"19","size_leaf_vector":"1"}},{"base_weights":[2.5187562E0,-4.991628E1,7.639653E1,-9.848763E1,-1.9475128E1,7.5499266E-1,4.1781383E0,-5.307898E0,-9.28125E-1,-3.1299016E0,-3.3864167E0,-1.6481798E1,2.1529491E1,1.1029053E-2,-9.298584E-1,-1.0809327E-2,1.3509979E0],"categories":[],"categories_nodes":[],"categories_segments":[],"categories_sizes":[],"default_left":[0,0,0,0,0,0,0,0,0,0,0,0,0,0,0,0,0],"id":1,"left_children":[1,3,5,7,9,-1,-1,-1,-1,11,-1,13,15,-1,-1,-1,-1],"loss_changes":[1.5876478E5,3.3567574E4,6.2057344E3,3.546914E3,1.2407369E4,0E0,0E0,0E0,0E0,4.635091E3,0E0,3.2208765E2,6.0281104E2,0E0,0E0,0E0,0E0],"parents":[2147483647,0,0,1,1,2,2,3,3,4,4,9,9,11,11,12,12],"right_children":[2,4,6,8,10,-1,-1,-1,-1,12,-1,14,16,-1,-1,-1,-1],"split_conditions":[5.1899033E1,-9.816589E0,-5.9728413E0,1.2407552E-2,4.486914E1,7.5499266E-1,4.1781383E0,-5.307898E0,-9.28125E-1,2.3611288E-1,-3.3864167E0,1.2284653E-2,-1.1534876E-2,1.1029053E-2,-9.298584E-1,-1.0809327E-2,1.3509979E0],"split_indices":[4,5,5,0,4,0,0,0,0,3,0,2,0,0,0,0,0],"split_type":[0,0,0,0,0,0,0,0,0,0,0,0,0,0,0,0,0],"sum_hessian":[3.9E1,2.3E1,1.6E1,8E0,1.5E1,2E0,1.4E1,7E0,1E0,1.2E1,3E0,8E0,4E0,1E0,7E0,1E0,3E0],"tree_param":{"num_deleted":"0","num_feature":"8","num_nodes":"17","size_leaf_vector":"1"}},{"base_weights":[-1.855219E0,-4.8601154E1,7.5247215E1,-9.2751144E1,-2.2806358E1,7.2982997E-1,8.2360855E1,-1.6572062E0,-5.1754947E0,-3.579505E1,2.0720997E1,1.2179444E0,4.238197E0,-1.7429525E1,-5.4294292E1,-1.0540771E-2,1.3003327E0,-5.2709963E-2,-1.0978795E0,-3.8020813E0,-9.4866943E-1],"categories":[],"categories_nodes":[],"categories_segments":[],"categories_sizes":[],"default_left":[0,0,0,0,0,0,0,0,0,0,0,0,0,0,0,0,0,0,0,0,0],"id":2,"left_children":[1,3,5,7,9,-1,11,-1,-1,13,15,-1,-1,17,19,-1,-1,-1,-1,-1,-1],"loss_changes":[1.6224302E5,2.977221E4,6.1323984E3,2.9822188E3,1.1483614E4,0E0,2.5992188E1,0E0,0E0,4.1499023E3,5.5867456E2,0E0,0E0,6.4418896E2,3.9341816E3,0E0,0E0,0E0,0E0,0E0,0E0],"parents":[2147483647,0,0,1,1,2,2,3,3,4,4,6,6,9,9,10,10,13,13,14,14],"right_children":[2,4,6,8,10,-1,12,-1,-1,14,16,-1,-1,18,20,-1,-1,-1,-1,-1,-1],"split_conditions":[5.1899033E1,-9.816589E0,-5.9728413E0,-1.7346107E1,2.3611288E-1,7.2982997E-1,5.3030685E1,-1.6572062E0,-5.1754947E0,3.9891937E1,-1.1534876E-2,1.2179444E0,4.238197E0,-7.2554455E0,1.1413385E0,-1.0540771E-2,1.3003327E0,-5.2709963E-2,-1.0978795E0,-3.8020813E0,-9.4866943E-1],"split_indices":[4,5,5,6,3,0,4,0,0,4,0,0,0,5,5,0,0,0,0,0,0],"split_type":[0,0,0,0,0,0,0,0,0,0,0,0,0,0,0,0,0,0,0,0,0],"sum_hessian":[4.3E1,2.7E1,1.6E1,9E0,1.8E1,2E0,1.4E1,2E0,7E0,1.4E1,4E0,1E0,1.3E1,8E0,6E0,1E0,3E0,2E0,6E0,3E0,3E0],"tree_param":{"num_deleted":"0","num_feature":"8","num_nodes":"21","size_leaf_vector":"1"}},{"base_weights":[9.2177925E0,-4.2788074E1,6.93792E1,-7.01179E1,-5.7134767E0,7.055054E-1,7.540596E1,-8.0243996E1,-1.2991618E1,-1.671521E1,1.2764486E0,8.9398193E-1,3.9024537E0,-4.2210097E0,-1.0664551E0,-1.1088257E-1,-8.634888E-1,3.8201906E-2,-1.9321394E1,3.4454346E-2,-1.1385661E0],"categories":[],"categories_nodes":[],"categories_segments":[],"categories_sizes":[],"default_left":[0,0,0,0,0,0,0,0,0,0,0,0,0,0,0,0,0,0,0,0,0],"id":3,"left_children":[1,3,5,7,9,-1,11,13,15,17,-1,-1,-1,-1,-1,-1,-1,-1,19,-1,-1],"loss_changes":[1.2186096E5,2.0877469E4,4.9316953E3,5.8990977E3,3.8639329E3,0E0,1.0372891E3,6.5979297E2,9.997983E1,3.7919507E2,0E0,0E0,0E0,0E0,0E0,0E0,0E0,0E0,4.9893457E2,0E0,0E0],"parents":[2147483647,0,0,1,1,2,2,3,3,4,4,6,6,7,7,8,8,9,9,18,18],"right_children":[2,4,6,8,10,-1,12,14,16,18,-1,-1,-1,-1,-1,-1,-1,-1,20,-1,-1],"split_conditions":[5.1899033E1,2.9033985E0,-5.9728413E0,-1.2057338E0,9.96433E-4,7.055054E-1,-1.629718E-2,4.7294533E1,-8.177432E-3,-1.9907001E1,1.2764486E0,8.9398193E-1,3.9024537E0,-4.2210097E0,-1.0664551E0,-1.1088257E-1,-8.634888E-1,3.8201906E-2,3.2623375E1,3.4454346E-2,-1.1385661E0],"split_indices":[4,6,5,3,0,0,0,4,0,7,0,0,0,0,0,0,0,0,4,0,0],"split_type":[0,0,0,0,0,0,0,0,0,0,0,0,0,0,0,0,0,0,0,0,0],"sum_hessian":[3.7E1,2E1,1.7E1,1.1E1,9E0,2E0,1.5E1,9E0,2E0,7E0,2E0,1E0,1.4E1,8E0,1E0,1E0,1E0,1E0,6E0,1E0,5E0],"tree_param":{"num_deleted":"0","num_feature":"8","num_nodes":"21","size_leaf_vector":"1"}},{"base_weights":[-7.373752E-1,-4.6147808E1,6.994205E1,-8.341426E1,-2.0810099E1,7.803036E1,2.2125366E1,-5.5598655E0,-2.5826452E0,-3.6030273E1,1.5635295E1,1.0899353E0,8.048985E1,2.9176638E-1,1.2805135E0,-3.5012207E0,-1.882959E1,-1.5415853E0,1.2304566E0,1.1900696E0,4.1509814E0,-1.5004477E-1,-1.1205826E0,-7.507324E-3,-1.08111575E-1],"categories":[],"categories_nodes":[],"categories_segments":[],"categories_sizes":[],"default_left":[0,0,0,0,0,0,0,0,0,0,0,0,0,0,0,0,0,0,0,0,0,0,0,0,0],"id":4,"left_children":[1,3,5,7,9,11,13,-1,-1,15,17,-1,19,-1,-1,-1,21,23,-1,-1,-1,-1,-1,-1,-1],"loss_changes":[1.4765892E5,2.4703043E4,5.2351484E3,3.963039E3,1.0548039E4,3.1995312E2,7.763257E1,0E0,0E0,6.2828613E3,9.627921E2,0E0,3.175E1,0E0,0E0,0E0,4.9973877E2,2.2661219E0,0E0,0E0,0E0,0E0,0E0,0E0,0E0],"parents":[2147483647,0,0,1,1,2,2,3,3,4,4,5,5,6,6,9,9,10,10,12,12,16,16,17,17],"right_children":[2,4,6,8,10,12,14,-1,-1,16,18,-1,20,-1,-1,-1,22,24,-1,-1,-1,-1,-1,-1,-1],"split_conditions":[5.1899033E1,-9.816589E0,2.446052E-2,-2.3014243E-3,-2.3069546E0,5.3030685E1,2.5516236E-2,-5.5598655E0,-2.5826452E0,2.6991596E0,-8.177432E-3,1.0899353E0,1.1010061E-2,2.9176638E-1,1.2805135E0,-3.5012207E0,-1.466523E-2,-1.1534876E-2,1.2304566E0,1.1900696E0,4.1509814E0,-1.5004477E-1,-1.1205826E0,-7.507324E-3,-1.08111575E-1],"split_indices":[4,5,2,0,3,4,2,0,0,6,0,0,2,0,0,0,0,0,0,0,0,0,0,0,0],"split_type":[0,0,0,0,0,0,0,0,0,0,0,0,0,0,0,0,0,0,0,0,0,0,0,0,0],"sum_hessian":[4.4E1,2.7E1,1.7E1,1E1,1.7E1,1.4E1,3E0,4E0,6E0,1.2E1,5E0,1E0,1.3E1,1E0,2E0,3E0,9E0,2E0,3E0,1E0,1.2E1,2E0,7E0,1E0,1E0],"tree_param":{"num_deleted":"0","num_feature":"8","num_nodes":"25","size_leaf_vector":"1"}},{"base_weights":[-3.8853082E-1,-4.306821E1,6.602367E1,-8.215415E1,-2.0229916E1,7.1817444E1,6.557821E-1,-5.3374734E0,-2.398285E0,-3.1921387E1,1.8890478E1,2.226532E0,4.008615E0,-2.0354248E1,-2.932123E0,-7.3181153E-3,1.184314E0,-2.9199218E-2,-1.2124952E0],"categories":[],"categories_nodes":[],"categories_segments":[],"categories_sizes":[],"default_left":[0,0,0,0,0,0,0,0,0,0,0,0,0,0,0,0,0,0,0],"id":5,"left_children":[1,3,5,7,9,11,-1,-1,-1,13,15,-1,-1,17,-1,-1,-1,-1,-1],"loss_changes":[1.3039383E5,2.3332406E4,4.575742E3,3.2884375E3,9.293135E3,7.7515625E1,0E0,0E0,0E0,3.4426729E3,4.5995117E2,0E0,0E0,9.1005566E2,0E0,0E0,0E0,0E0,0E0],"parents":[2147483647,0,0,1,1,2,2,3,3,4,4,5,5,9,9,10,10,13,13],"right_children":[2,4,6,8,10,12,-1,-1,-1,14,16,-1,-1,18,-1,-1,-1,-1,-1],"split_conditions":[5.1899033E1,-9.816589E0,2.446052E-2,-2.3014243E-3,2.3611288E-1,1.393048E-2,6.557821E-1,-5.3374734E0,-2.398285E0,4.486914E1,-1.1534876E-2,2.226532E0,4.008615E0,-7.2554455E0,-2.932123E0,-7.3181153E-3,1.184314E0,-2.9199218E-2,-1.2124952E0],"split_indices":[4,5,2,0,3,2,0,0,0,4,0,0,0,5,0,0,0,0,0],"split_type":[0,0,0,0,0,0,0,0,0,0,0,0,0,0,0,0,0,0,0],"sum_hessian":[4.4E1,2.7E1,1.7E1,9E0,1.8E1,1.5E1,2E0,4E0,5E0,1.4E1,4E0,5E0,1E1,1.1E1,3E0,1E0,3E0,2E0,9E0],"tree_param":{"num_deleted":"0","num_feature":"8","num_nodes":"19","size_leaf_vector":"1"}},{"base_weights":[-8.932726E-1,-4.0927753E1,6.143221E1,-7.778296E1,-1.9376183E1,6.3392335E-1,6.6734024E1,-5.5768127E0,-2.3691757E0,-3.248479E0,-4.6559605E1,2.1900828E0,7.611328E1,-1.33422365E1,1.1399018E0,-3.2814667E0,-1.5849976E1,1.1046509E0,3.9830377E0,-8.203735E-2,-9.061384E-1,-8.968221E-1,-2.397644E-1],"categories":[],"categories_nodes":[],"categories_segments":[],"categories_sizes":[],"default_left":[0,0,0,0,0,0,0,0,0,0,0,0,0,0,0,0,0,0,0,0,0,0,0],"id":6,"left_children":[1,3,5,7,9,-1,11,-1,-1,13,15,-1,17,19,-1,-1,21,-1,-1,-1,-1,-1,-1],"loss_changes":[1.1479684E5,2.0732918E4,3.806625E3,4.975836E3,8.1784697E3,0E0,1.0753125E2,0E0,0E0,3.7219702E3,3.0591465E3,0E0,1.5640234E2,5.2965857E2,0E0,0E0,6.2505493E0,0E0,0E0,0E0,0E0,0E0,0E0],"parents":[2147483647,0,0,1,1,2,2,3,3,4,4,6,6,9,9,10,10,12,12,13,13,16,16],"right_children":[2,4,6,8,10,-1,12,-1,-1,14,16,-1,18,20,-1,-1,22,-1,-1,-1,-1,-1,-1],"split_conditions":[5.1899033E1,-1.3863201E1,-5.9728413E0,-2.3014243E-3,4.1520702E1,6.3392335E-1,6.648424E1,-5.5768127E0,-2.3691757E0,9.96433E-4,1.1413385E0,2.1900828E0,1.1010061E-2,-1.1534876E-2,1.1399018E0,-3.2814667E0,1.8084459E0,1.1046509E0,3.9830377E0,-8.203735E-2,-9.061384E-1,-8.968221E-1,-2.397644E-1],"split_indices":[4,5,5,0,4,0,4,0,0,0,5,0,2,0,0,0,1,0,0,0,0,0,0],"split_type":[0,0,0,0,0,0,0,0,0,0,0,0,0,0,0,0,0,0,0,0,0,0,0],"sum_hessian":[4.4E1,2.7E1,1.7E1,9E0,1.8E1,2E0,1.5E1,3E0,6E0,1.2E1,6E0,6E0,9E0,9E0,3E0,3E0,3E0,1E0,8E0,3E0,6E0,2E0,1E0],"tree_param":{"num_deleted":"0","num_feature":"8","num_nodes":"23","size_leaf_vector":"1"}},{"base_weights":[-2.276223E0,-4.14493E1,6.237803E1,-6.1181477E1,-5.3921566E0,2.5009228E1,3.597617E0,-7.3038994E1,-1.4204102E0,1.7581177E1,-1.6204803E1,2.5222778E-1,1.436963E0,-3.9825685E0,-1.7471069E0,6.881429E0,-6.581482E-1,8.499756E-2,1.1154134E0,-1.2350067E0,-6.167578E0,-5.0842287E-3,5.211914E-1,7.336426E-2,-4.2215577E-1],"categories":[],"categories_nodes":[],"categories_segments":[],"categories_sizes":[],"default_left":[0,0,0,0,0,0,0,0,0,0,0,0,0,0,0,0,0,0,0,0,0,0,0,0,0],"id":7,"left_children":[1,3,5,7,9,11,-1,13,15,17,19,-1,-1,-1,-1,21,-1,-1,-1,-1,23,-1,-1,-1,-1],"loss_changes":[1.1402458E5,1.9591707E4,4.282797E3,1.2651375E4,3.0173274E3,2.2736719E2,0E0,9.9547656E2,4.8051917E2,2.623651E2,5.298164E2,0E0,0E0,0E0,0E0,7.527086E1,0E0,0E0,0E0,0E0,9.925552E1,0E0,0E0,0E0,0E0],"parents":[2147483647,0,0,1,1,2,2,3,3,4,4,5,5,7,7,8,8,9,9,10,10,15,15,20,20],"right_children":[2,4,6,8,10,12,-1,14,16,18,20,-1,-1,-1,-1,22,-1,-1,-1,-1,24,-1,-1,-1,-1],"split_conditions":[5.1899033E1,2.9033985E0,6.2667255E1,1.4418727E-2,1.0821045E1,-1.6527536E1,3.597617E0,-4.9731655E0,1.5056612E-2,-1.3408154E1,2.8711912E-1,2.5222778E-1,1.436963E0,-3.9825685E0,-1.7471069E0,-5.977756E-1,-6.581482E-1,8.499756E-2,1.1154134E0,-1.2350067E0,1.2284653E-2,-5.0842287E-3,5.211914E-1,7.336426E-2,-4.2215577E-1],"split_indices":[4,6,4,2,6,5,0,5,2,3,1,0,0,0,0,1,0,0,0,0,2,0,0,0,0],"split_type":[0,0,0,0,0,0,0,0,0,0,0,0,0,0,0,0,0,0,0,0,0,0,0,0,0],"sum_hessian":[4.3E1,2.7E1,1.6E1,1.7E1,1E1,4E0,1.2E1,1.4E1,3E0,3E0,7E0,1E0,3E0,1.1E1,3E0,2E0,1E0,1E0,2E0,3E0,4E0,1E0,1E0,1E0,3E0],"tree_param":{"num_deleted":"0","num_feature":"8","num_nodes":"25","size_leaf_vector":"1"}},{"base_weights":[5.16601E0,-3.4124443E1,5.659208E1,-7.064944E1,-9.163544E0,5.8463544E-1,6.1186554E1,-4.764549E0,-1.9169962E0,-1.928656E1,1.6964405E1,3.9457973E1,6.9451416E1,-1.1790479E1,-1.8922323E0,-4.956055E-3,1.0627533E0,5.674988E-1,2.1125488E0,3.6224098E0,9.8709106E-1,6.694743E-2,-7.620102E-1],"categories":[],"categories_nodes":[],"categories_segments":[],"categories_sizes":[],"default_left":[0,0,0,0,0,0,0,0,0,0,0,0,0,0,0,0,0,0,0,0,0,0,0],"id":8,"left_children":[1,3,5,7,9,-1,11,-1,-1,13,15,17,19,21,-1,-1,-1,-1,-1,-1,-1,-1,-1],"loss_changes":[8.881498E4,2.2145018E4,3.2040547E3,4.3081094E3,4.559083E3,0E0,3.125078E2,0E0,0E0,1.2231484E3,3.681759E2,6.999219E1,2.0839844E2,4.7333496E2,0E0,0E0,0E0,0E0,0E0,0E0,0E0,0E0,0E0],"parents":[2147483647,0,0,1,1,2,2,3,3,4,4,6,6,9,9,10,10,11,11,12,12,13,13],"right_children":[2,4,6,8,10,-1,12,-1,-1,14,16,18,20,22,-1,-1,-1,-1,-1,-1,-1,-1,-1],"split_conditions":[5.1899033E1,-9.816589E0,-5.9728413E0,-2.3014243E-3,2.3611288E-1,5.8463544E-1,6.648424E1,-4.764549E0,-1.9169962E0,4.486914E1,-1.1534876E-2,-1.629718E-2,2.5845142E1,-7.2554455E0,-1.8922323E0,-4.956055E-3,1.0627533E0,5.674988E-1,2.1125488E0,3.6224098E0,9.8709106E-1,6.694743E-2,-7.620102E-1],"split_indices":[4,5,5,0,3,0,4,0,0,4,0,0,7,5,0,0,0,0,0,0,0,0,0],"split_type":[0,0,0,0,0,0,0,0,0,0,0,0,0,0,0,0,0,0,0,0,0,0,0],"sum_hessian":[4.2E1,2.4E1,1.8E1,9E0,1.5E1,2E0,1.6E1,4E0,5E0,1.1E1,4E0,6E0,1E1,9E0,2E0,1E0,3E0,1E0,5E0,9E0,1E0,2E0,7E0],"tree_param":{"num_deleted":"0","num_feature":"8","num_nodes":"23","size_leaf_vector":"1"}},{"base_weights":[3.5168116E0,-3.2004356E1,5.4629787E1,-4.2680126E1,3.069894E0,3.3220486E1,6.843518E1,-3.2020066E0,-1.4916113E1,1.6416199E1,-1.1043884E1,2.3130493E-1,1.8108262E0,9.6241456E-1,3.5880845E0,-1.4135742E0,-1.8115051E1,1.5875245E-2,1.0838298E0,-4.8339847E-3,-7.330363E-1,-1.9660035E-1,9.0582274E-2,8.120117E-2,-1.0583462E0],"categories":[],"categories_nodes":[],"categories_segments":[],"categories_sizes":[],"default_left":[0,0,0,0,0,0,0,0,0,0,0,0,0,0,0,0,0,0,0,0,0,0,0,0,0],"id":9,"left_children":[1,3,5,7,9,11,13,-1,15,17,19,-1,-1,-1,-1,21,23,-1,-1,-1,-1,-1,-1,-1,-1],"loss_changes":[7.981888E4,9.866586E3,3.0466992E3,1.0905555E4,1.4998661E3,6.034873E2,2.5491406E2,0E0,4.0633105E2,3.3185974E2,1.5695984E2,0E0,0E0,0E0,0E0,3.1490898E1,5.1630444E2,0E0,0E0,0E0,0E0,0E0,0E0,0E0,0E0],"parents":[2147483647,0,0,1,1,2,2,3,3,4,4,5,5,6,6,8,8,9,9,10,10,15,15,16,16],"right_children":[2,4,6,8,10,12,14,-1,16,18,20,-1,-1,-1,-1,22,24,-1,-1,-1,-1,-1,-1,-1,-1],"split_conditions":[5.1899033E1,-1.2057338E0,6.648424E1,2.6991596E0,-5.120652E0,-1.9145752E1,1.1010061E-2,-3.2020066E0,-1.466523E-2,-8.177432E-3,-1.1534876E-2,2.3130493E-1,1.8108262E0,9.6241456E-1,3.5880845E0,-2.7597085E-2,3.2623375E1,1.5875245E-2,1.0838298E0,-4.8339847E-3,-7.330363E-1,-1.9660035E-1,9.0582274E-2,8.120117E-2,-1.0583462E0],"split_indices":[4,3,4,6,7,6,2,0,0,0,0,0,0,0,0,0,4,0,0,0,0,0,0,0,0],"split_type":[0,0,0,0,0,0,0,0,0,0,0,0,0,0,0,0,0,0,0,0,0,0,0,0,0],"sum_hessian":[4.2E1,2.5E1,1.7E1,1.9E1,6E0,8E0,9E0,1E1,9E0,3E0,3E0,1E0,7E0,1E0,8E0,2E0,7E0,1E0,2E0,1E0,2E0,1E0,1E0,1E0,6E0],"tree_param":{"num_deleted":"0","num_feature":"8","num_nodes":"25","size_leaf_vector":"1"}},{"base_weights":[-1.5974877E0,-3.3271664E1,4.693934E1,-6.6468895E1,-1.1786721E1,5.3111166E-1,2.5536735E0,-4.950443E0,-3.837908E1,-2.3282145E1,1.3168579E1,-2.0469666E0,-5.7543945E-1,-1.2315755E1,-2.1067994E0,1.4355469E-1,9.8226017E-1,-7.6618654E-1,-5.9594728E-2,-4.7119143E-3,1.5478516E-2],"categories":[],"categories_nodes":[],"categories_segments":[],"categories_sizes":[],"default_left":[0,0,0,0,0,0,0,0,0,0,0,0,0,0,0,0,0,0,0,0,0],"id":10,"left_children":[1,3,5,7,9,-1,-1,-1,11,13,15,-1,-1,17,-1,19,-1,-1,-1,-1,-1],"loss_changes":[6.613104E4,1.7760807E4,2.0098633E3,5.340543E3,5.183412E3,0E0,0E0,0E0,1.0400391E1,1.962166E3,5.0332886E2,0E0,0E0,2.8287842E2,0E0,1.4760542E-1,0E0,0E0,0E0,0E0,0E0],"parents":[2147483647,0,0,1,1,2,2,3,3,4,4,8,8,9,9,10,10,13,13,15,15],"right_children":[2,4,6,8,10,-1,-1,-1,12,14,16,-1,-1,18,-1,20,-1,-1,-1,-1,-1],"split_conditions":[5.1899033E1,-1.3863201E1,-5.9728413E0,-2.3014243E-3,-2.3069546E0,5.3111166E-1,2.5536735E0,-4.950443E0,1.2407552E-2,-5.956266E0,-8.177432E-3,-2.0469666E0,-5.7543945E-1,1.8084459E0,-2.1067994E0,-1.1534876E-2,9.8226017E-1,-7.6618654E-1,-5.9594728E-2,-4.7119143E-3,1.5478516E-2],"split_indices":[4,5,5,0,3,0,0,0,0,3,0,0,0,1,0,0,0,0,0,0,0],"split_type":[0,0,0,0,0,0,0,0,0,0,0,0,0,0,0,0,0,0,0,0,0],"sum_hessian":[4.1E1,2.5E1,1.6E1,9E0,1.6E1,2E0,1.4E1,3E0,6E0,1.1E1,5E0,5E0,1E0,8E0,3E0,2E0,3E0,6E0,2E0,1E0,1E0],"tree_param":{"num_deleted":"0","num_feature":"8","num_nodes":"21","size_leaf_vector":"1"}},{"base_weights":[-1.1102931E0,-3.5441135E1,4.9540966E1,-5.2481243E1,-4.335405E0,5.4818283E1,1.6046448E1,-6.2790962E1,-1.3117773E1,1.5592346E1,-1.3757355E1,5.906201E1,1.3660797E0,2.1224976E-1,9.2826337E-1,-8.400859E1,-4.5903053E1,5.933838E0,-1.3898396E0,9.8321535E-2,9.739421E-1,-1.0916992E0,-4.54458E0,3.389422E0,3.1542042E1,-9.714722E-1,-4.764801E0,-2.4417603E0,-4.878418E-1,1.5093994E-2,4.2994386E-1,8.980713E-2,-3.2893983E-1,4.4420168E-1,1.7492768E0],"categories":[],"categories_nodes":[],"categories_segments":[],"categories_sizes":[],"default_left":[0,0,0,0,0,0,0,0,0,0,0,0,0,0,0,0,0,0,0,0,0,0,0,0,0,0,0,0,0,0,0,0,0,0,0],"id":11,"left_children":[1,3,5,7,9,11,13,15,17,19,21,23,-1,-1,-1,25,27,29,-1,-1,-1,-1,31,-1,33,-1,-1,-1,-1,-1,-1,-1,-1,-1,-1],"loss_changes":[8.17452E4,1.461373E4,2.4788242E3,6.481199E3,2.2798503E3,2.5335156E2,4.0093384E1,1.16025E3,1.5632366E3,1.7352435E2,4.9603894E2,9.8377344E2,0E0,0E0,0E0,1.7931133E3,5.833867E2,4.2432335E1,0E0,0E0,0E0,0E0,7.630847E1,0E0,7.930127E1,0E0,0E0,0E0,0E0,0E0,0E0,0E0,0E0,0E0,0E0],"parents":[2147483647,0,0,1,1,2,2,3,3,4,4,5,5,6,6,7,7,8,8,9,9,10,10,11,11,15,15,16,16,17,17,22,22,24,24],"right_children":[2,4,6,8,10,12,14,16,18,20,22,24,-1,-1,-1,26,28,30,-1,-1,-1,-1,32,-1,34,-1,-1,-1,-1,-1,-1,-1,-1,-1,-1],"split_conditions":[5.1899033E1,2.9033985E0,2.446052E-2,1.4118528E-2,1.0821045E1,4.2199738E1,2.5516236E-2,-1.0827097E1,4.1520702E1,-1.3408154E1,2.8711912E-1,2.1924353E1,1.3660797E0,2.1224976E-1,9.2826337E-1,-1.25452795E1,1.3500333E-2,1.11746125E-1,-1.3898396E0,9.8321535E-2,9.739421E-1,-1.0916992E0,1.2284653E-2,3.389422E0,1.7398298E1,-9.714722E-1,-4.764801E0,-2.4417603E0,-4.878418E-1,1.5093994E-2,4.2994386E-1,8.980713E-2,-3.2893983E-1,4.4420168E-1,1.7492768E0],"split_indices":[4,6,2,2,6,6,2,6,4,3,1,7,0,0,0,3,2,1,0,0,0,0,2,0,3,0,0,0,0,0,0,0,0,0,0],"split_type":[0,0,0,0,0,0,0,0,0,0,0,0,0,0,0,0,0,0,0,0,0,0,0,0,0,0,0,0,0,0,0,0,0,0,0],"sum_hessian":[4.5E1,2.7E1,1.8E1,1.7E1,1E1,1.5E1,3E0,1.3E1,4E0,3E0,7E0,1.2E1,3E0,1E0,2E0,4E0,9E0,2E0,2E0,1E0,2E0,3E0,4E0,8E0,4E0,1E0,3E0,8E0,1E0,1E0,1E0,1E0,3E0,1E0,3E0],"tree_param":{"num_deleted":"0","num_feature":"8","num_nodes":"35","size_leaf_vector":"1"}},{"base_weights":[1.745867E0,-2.9703457E1,4.532849E1,-5.3315575E1,-1.30894165E1,4.9440512E-1,4.9140533E1,-2.8450196E0,-5.2630615E-1,5.42771E0,-3.767254E1,7.202698E-1,2.5247924E0,-2.711356E0,9.157074E-1,-2.7194428E0,-1.1538086E1,9.617106E-3,-5.0333863E-1,-6.5720624E-1,-1.6799927E-1],"categories":[],"categories_nodes":[],"categories_segments":[],"categories_sizes":[],"default_left":[0,0,0,0,0,0,0,0,0,0,0,0,0,0,0,0,0,0,0,0,0],"id":12,"left_children":[1,3,5,7,9,-1,11,-1,-1,13,15,-1,-1,17,-1,-1,19,-1,-1,-1,-1],"loss_changes":[5.8913465E4,9.109447E3,1.9458984E3,9.3498047E2,7.4878154E3,0E0,2.5820312E1,0E0,0E0,1.098492E3,2.4305596E3,0E0,0E0,1.5144162E2,0E0,0E0,8.373291E0,0E0,0E0,0E0,0E0],"parents":[2147483647,0,0,1,1,2,2,3,3,4,4,6,6,9,9,10,10,13,13,16,16],"right_children":[2,4,6,8,10,-1,12,-1,-1,14,16,-1,-1,18,-1,-1,20,-1,-1,-1,-1],"split_conditions":[5.1899033E1,-9.816589E0,-5.9728413E0,1.2407552E-2,4.1520702E1,4.9440512E-1,-7.7446836E-1,-2.8450196E0,-5.2630615E-1,-4.4433924E-4,1.1413385E0,7.202698E-1,2.5247924E0,1.5408485E-2,9.157074E-1,-2.7194428E0,1.8084459E0,9.617106E-3,-5.0333863E-1,-6.5720624E-1,-1.6799927E-1],"split_indices":[4,5,5,0,4,0,1,0,0,0,5,0,0,2,0,0,1,0,0,0,0],"split_type":[0,0,0,0,0,0,0,0,0,0,0,0,0,0,0,0,0,0,0,0,0],"sum_hessian":[4.1E1,2.4E1,1.7E1,9E0,1.5E1,2E0,1.5E1,8E0,1E0,9E0,6E0,1E0,1.4E1,6E0,3E0,3E0,3E0,5E0,1E0,2E0,1E0],"tree_param":{"num_deleted":"0","num_feature":"8","num_nodes":"21","size_leaf_vector":"1"}},{"base_weights":[1.5291209E0,-2.8447247E1,4.4743366E1,-4.328801E1,-4.2745695E0,2.7262207E1,5.6002075E1,-4.9138165E1,-1.5579427E0,1.4620544E1,-1.3187805E1,1.9458619E-1,2.9697052E1,2.940636E0,7.6765746E-1,-2.8867974E0,-2.8051798E1,3.9630127E-1,-5.13147E-1,9.5623784E-2,9.109538E-1,-1.0560303E0,-4.204004E0,3.6997682E-1,1.5912668E0,-1.8731812E0,-3.07605E-1,8.7323E-2,-3.0641174E-1],"categories":[],"categories_nodes":[],"categories_segments":[],"categories_sizes":[],"default_left":[0,0,0,0,0,0,0,0,0,0,0,0,0,0,0,0,0,0,0,0,0,0,0,0,0,0,0,0,0],"id":13,"left_children":[1,3,5,7,9,11,13,15,17,19,21,-1,23,-1,-1,-1,25,-1,-1,-1,-1,-1,27,-1,-1,-1,-1,-1,-1],"loss_changes":[5.6975293E4,9.142229E3,2.0159336E3,3.8294844E3,2.0453955E3,3.9655908E2,2.395332E2,9.185469E2,3.2901807E2,1.48078E2,4.8134253E2,0E0,1.4415088E2,0E0,0E0,0E0,1.0062168E3,0E0,0E0,0E0,0E0,0E0,6.7953064E1,0E0,0E0,0E0,0E0,0E0,0E0],"parents":[2147483647,0,0,1,1,2,2,3,3,4,4,5,5,6,6,7,7,8,8,9,9,10,10,12,12,16,16,22,22],"right_children":[2,4,6,8,10,12,14,16,18,20,22,-1,24,-1,-1,-1,26,-1,-1,-1,-1,-1,28,-1,-1,-1,-1,-1,-1],"split_conditions":[5.1899033E1,2.9033985E0,6.648424E1,3.4788854E0,1.0821045E1,-1.6527536E1,2.5845142E1,-8.083109E0,9.985114E-3,-4.4433924E-4,2.8711912E-1,1.9458619E-1,-1.629718E-2,2.940636E0,7.6765746E-1,-2.8867974E0,-2.3069546E0,3.9630127E-1,-5.13147E-1,9.5623784E-2,9.109538E-1,-1.0560303E0,-2.1072706E1,3.6997682E-1,1.5912668E0,-1.8731812E0,-3.07605E-1,8.7323E-2,-3.0641174E-1],"split_indices":[4,6,4,3,6,5,7,5,0,0,1,0,0,0,0,0,3,0,0,0,0,0,3,0,0,0,0,0,0],"split_type":[0,0,0,0,0,0,0,0,0,0,0,0,0,0,0,0,0,0,0,0,0,0,0,0,0,0,0,0,0],"sum_hessian":[4.2E1,2.5E1,1.7E1,1.5E1,1E1,8E0,9E0,1.3E1,2E0,3E0,7E0,1E0,7E0,8E0,1E0,8E0,5E0,1E0,1E0,1E0,2E0,3E0,4E0,1E0,6E0,3E0,2E0,1E0,3E0],"tree_param":{"num_deleted":"0","num_feature":"8","num_nodes":"29","size_leaf_vector":"1"}},{"base_weights":[-1.7367085E0,-3.2087864E1,4.2200333E1,-4.9070175E1,-4.4692383E0,4.695864E1,1.380658E1,-5.994218E1,-1.316333E1,-9.493561E0,6.6967163E0,3.6073E-1,4.9282173E1,1.8972169E-1,7.9395753E-1,-1.2373047E0,-6.450679E1,8.513794E-2,-1.7305542E1,9.32312E-2,-1.1382533E1,-1.5118408E-2,4.5652673E-1,5.4118717E1,1.1830567E0,-4.371179E0,-2.109811E0,-1.0496094E0,-1.5614013E-1,-8.981527E-2,-7.4288815E-1,7.4846804E-1,2.826836E0],"categories":[],"categories_nodes":[],"categories_segments":[],"categories_sizes":[],"default_left":[0,0,0,0,0,0,0,0,0,0,0,0,0,0,0,0,0,0,0,0,0,0,0,0,0,0,0,0,0,0,0,0,0],"id":14,"left_children":[1,3,5,7,9,11,13,15,17,19,21,-1,23,-1,-1,-1,25,-1,27,-1,29,-1,-1,31,-1,-1,-1,-1,-1,-1,-1,-1,-1],"loss_changes":[5.869633E4,1.1975424E4,1.7835781E3,5.4570312E3,6.8069055E2,1.0296484E3,2.2751099E1,3.3158984E2,3.3735962E2,1.9286664E2,7.089877E1,0E0,4.5433203E2,0E0,0E0,0E0,1.4239219E3,0E0,1.435924E2,0E0,2.0651141E2,0E0,0E0,1.9497656E2,0E0,0E0,0E0,0E0,0E0,0E0,0E0,0E0,0E0],"parents":[2147483647,0,0,1,1,2,2,3,3,4,4,5,5,6,6,7,7,8,8,9,9,10,10,12,12,16,16,18,18,20,20,23,23],"right_children":[2,4,6,8,10,12,14,16,18,20,22,-1,24,-1,-1,-1,26,-1,28,-1,30,-1,-1,32,-1,-1,-1,-1,-1,-1,-1,-1,-1],"split_conditions":[5.1899033E1,1.4118528E-2,2.446052E-2,1.1413385E0,3.719241E0,-1.629718E-2,2.5516236E-2,-1.25452795E1,-1.466523E-2,3.2623375E1,-1.1534876E-2,3.6073E-1,4.0648216E1,1.8972169E-1,7.9395753E-1,-1.2373047E0,-1.0827097E1,8.513794E-2,1.2955094E-2,9.32312E-2,-8.177432E-3,-1.5118408E-2,4.5652673E-1,1.1010061E-2,1.1830567E0,-4.371179E0,-2.109811E0,-1.0496094E0,-1.5614013E-1,-8.981527E-2,-7.4288815E-1,7.4846804E-1,2.826836E0],"split_indices":[4,2,2,5,3,0,2,3,0,4,0,0,6,0,0,0,6,0,2,0,0,0,0,2,0,0,0,0,0,0,0,0,0],"split_type":[0,0,0,0,0,0,0,0,0,0,0,0,0,0,0,0,0,0,0,0,0,0,0,0,0,0,0,0,0,0,0,0,0],"sum_hessian":[4.2E1,2.5E1,1.7E1,1.5E1,1E1,1.4E1,3E0,1.1E1,4E0,7E0,3E0,1E0,1.3E1,1E0,2E0,2E0,9E0,1E0,3E0,1E0,6E0,1E0,2E0,1E1,3E0,3E0,6E0,2E0,1E0,2E0,4E0,1E0,9E0],"tree_param":{"num_deleted":"0","num_feature":"8","num_nodes":"33","size_leaf_vector":"1"}},{"base_weights":[-2.2780063E0,-3.0625648E1,4.1211212E1,-4.6427597E1,-4.856845E0,2.2698181E1,5.1900513E1,-5.6767803E1,-1.2150269E0,-1.1990452E1,1.8162924E1,4.9967957E-1,1.4161109E0,3.0564992E0,1.1386902E0,-7.34999E1,-4.1164658E1,4.8032227E0,-4.8174438E-1,-1.5020717E1,-9.2301434E-1,1.0752381E0,2.869812E-1,-4.2072635E0,-7.7296144E-1,-2.2116501E0,-4.15448E-1,-1.473999E-2,3.749817E-1,9.089966E-2,-9.065084E-1,8.300781E-2,-1.5223388E-1],"categories":[],"categories_nodes":[],"categories_segments":[],"categories_sizes":[],"default_left":[0,0,0,0,0,0,0,0,0,0,0,0,0,0,0,0,0,0,0,0,0,0,0,0,0,0,0,0,0,0,0,0,0],"id":15,"left_children":[1,3,5,7,9,11,13,15,17,19,21,-1,-1,-1,-1,23,25,27,-1,29,31,-1,-1,-1,-1,-1,-1,-1,-1,-1,-1,-1,-1],"loss_changes":[5.3040426E4,1.0361637E4,2.1861035E3,7.4111445E3,2.0241354E3,2.8856787E2,1.2960801E3,3.6835156E2,2.489698E2,2.879712E2,1.1206665E0,0E0,0E0,0E0,0E0,1.788498E3,5.397832E2,4.344998E1,0E0,3.994745E2,2.1496496E1,0E0,0E0,0E0,0E0,0E0,0E0,0E0,0E0,0E0,0E0,0E0,0E0],"parents":[2147483647,0,0,1,1,2,2,3,3,4,4,5,5,6,6,7,7,8,8,9,9,10,10,15,15,16,16,17,17,19,19,20,20],"right_children":[2,4,6,8,10,12,14,16,18,20,22,-1,-1,-1,-1,24,26,28,-1,30,32,-1,-1,-1,-1,-1,-1,-1,-1,-1,-1,-1,-1],"split_conditions":[5.1899033E1,2.6991596E0,1.787971E1,3.4788854E0,9.96433E-4,1.7398298E1,4.2199738E1,-1.0827097E1,9.985114E-3,1.1324598E0,1.6397625E-2,4.9967957E-1,1.4161109E0,3.0564992E0,1.1386902E0,-2.3014243E-3,-1.2057338E0,-1.1534876E-2,-4.8174438E-1,3.2623375E1,-1.466523E-2,1.0752381E0,2.869812E-1,-4.2072635E0,-7.7296144E-1,-2.2116501E0,-4.15448E-1,-1.473999E-2,3.749817E-1,9.089966E-2,-9.065084E-1,8.300781E-2,-1.5223388E-1],"split_indices":[4,6,6,3,0,3,6,6,0,1,0,0,0,0,0,0,3,0,0,4,0,0,0,0,0,0,0,0,0,0,0,0,0],"split_type":[0,0,0,0,0,0,0,0,0,0,0,0,0,0,0,0,0,0,0,0,0,0,0,0,0,0,0,0,0,0,0,0,0],"sum_hessian":[4.1E1,2.5E1,1.6E1,1.5E1,1E1,7E0,9E0,1.2E1,3E0,8E0,2E0,3E0,4E0,6E0,3E0,4E0,8E0,2E0,1E0,6E0,2E0,1E0,1E0,3E0,1E0,7E0,1E0,1E0,1E0,1E0,5E0,1E0,1E0],"tree_param":{"num_deleted":"0","num_feature":"8","num_nodes":"33","size_leaf_vector":"1"}},{"base_weights":[-2.2358565E0,-2.788746E1,3.6365765E1,-4.788758E1,-8.694857E0,4.1510826E-1,1.9677414E0,-5.6215885E1,-1.3879395E0,-1.5247884E1,1.3137939E1,-7.2518555E1,-1.8270142E0,3.656067E-1,-4.6970215E-1,8.22876E-2,-1.8791187E1,-1.4373779E-2,1.7708902E1,-9.658386E-1,-4.0494905E0,-3.4033205E-2,-1.1616868E0,1.0483582E0,2.7980956E-1],"categories":[],"categories_nodes":[],"categories_segments":[],"categories_sizes":[],"default_left":[0,0,0,0,0,0,0,0,0,0,0,0,0,0,0,0,0,0,0,0,0,0,0,0,0],"id":16,"left_children":[1,3,5,7,9,-1,-1,11,13,15,17,19,-1,-1,-1,-1,21,-1,23,-1,-1,-1,-1,-1,-1],"loss_changes":[4.4582664E4,9.947691E3,1.1831797E3,4.9563945E3,2.3463894E3,0E0,0E0,8.785625E2,2.7765158E2,7.492366E2,2.505592E2,6.889668E2,0E0,0E0,0E0,0E0,7.8875464E2,0E0,1.0628052E0,0E0,0E0,0E0,0E0,0E0,0E0],"parents":[2147483647,0,0,1,1,2,2,3,3,4,4,7,7,8,8,9,9,10,10,11,11,16,16,18,18],"right_children":[2,4,6,8,10,-1,-1,12,14,16,18,20,-1,-1,-1,-1,22,-1,24,-1,-1,-1,-1,-1,-1],"split_conditions":[5.1899033E1,-1.2046953E0,-5.9728413E0,1.4118528E-2,2.3611288E-1,4.1510826E-1,1.9677414E0,-2.3014243E-3,9.985114E-3,-7.2554455E0,-1.1534876E-2,-8.4690976E-1,-1.8270142E0,3.656067E-1,-4.6970215E-1,8.22876E-2,-1.466523E-2,-1.4373779E-2,1.6397625E-2,-9.658386E-1,-4.0494905E0,-3.4033205E-2,-1.1616868E0,1.0483582E0,2.7980956E-1],"split_indices":[4,6,5,2,3,0,0,0,0,5,0,1,0,0,0,0,0,0,0,0,0,0,0,0,0],"split_type":[0,0,0,0,0,0,0,0,0,0,0,0,0,0,0,0,0,0,0,0,0,0,0,0,0],"sum_hessian":[4.3E1,2.6E1,1.7E1,1.2E1,1.4E1,2E0,1.5E1,1E1,2E0,1.1E1,3E0,4E0,6E0,1E0,1E0,2E0,9E0,1E0,2E0,1E0,3E0,2E0,7E0,1E0,1E0],"tree_param":{"num_deleted":"0","num_feature":"8","num_nodes":"25","size_leaf_vector":"1"}},{"base_weights":[6.4010185E-1,-2.7035772E1,3.9043255E1,-3.7440228E1,-4.3789334E0,2.2745388E1,4.9807007E1,-4.7171917E1,-1.1736816E1,2.3959148E-1,-7.683698E0,1.6210938E-1,2.4778015E1,6.451599E-1,2.623687E0,-4.9483177E1,-5.437012E-1,1.3189697E-1,-1.1824749E0,-1.6873779E0,-5.879547E-1,2.9002076E-1,1.3330235E0,-9.393433E-1,-2.7108574E0,-3.760193E-1,2.5947267E-1,8.178101E-2,-1.6701254E-1],"categories":[],"categories_nodes":[],"categories_segments":[],"categories_sizes":[],"default_left":[0,0,0,0,0,0,0,0,0,0,0,0,0,0,0,0,0,0,0,0,0,0,0,0,0,0,0,0,0],"id":17,"left_children":[1,3,5,7,9,11,13,15,17,-1,19,-1,21,-1,-1,23,-1,25,-1,27,-1,-1,-1,-1,-1,-1,-1,-1,-1],"loss_changes":[4.569488E4,5.7293555E3,2.024791E3,3.6986895E3,3.0958392E2,2.7644922E2,3.0704688E2,4.6864453E2,8.514483E2,0E0,1.5121957E2,0E0,1.311543E2,0E0,0E0,5.799004E2,0E0,1.9383409E2,0E0,2.743335E1,0E0,0E0,0E0,0E0,0E0,0E0,0E0,0E0,0E0],"parents":[2147483647,0,0,1,1,2,2,3,3,4,4,5,5,6,6,7,7,8,8,10,10,12,12,15,15,17,17,19,19],"right_children":[2,4,6,8,10,12,14,16,18,-1,20,-1,22,-1,-1,24,-1,26,-1,28,-1,-1,-1,-1,-1,-1,-1,-1,-1],"split_conditions":[5.1899033E1,2.9033985E0,6.648424E1,1.3653654E-2,1.0821045E1,-1.6527536E1,1.1010061E-2,4.769275E1,4.1520702E1,2.3959148E-1,1.487879E-2,1.6210938E-1,-1.629718E-2,6.451599E-1,2.623687E0,3.1268099E1,-5.437012E-1,-1.1281167E-2,-1.1824749E0,1.2284653E-2,-5.879547E-1,2.9002076E-1,1.3330235E0,-9.393433E-1,-2.7108574E0,-3.760193E-1,2.5947267E-1,8.178101E-2,-1.6701254E-1],"split_indices":[4,6,4,2,6,5,2,4,4,0,2,0,0,0,0,4,0,0,0,2,0,0,0,0,0,0,0,0,0],"split_type":[0,0,0,0,0,0,0,0,0,0,0,0,0,0,0,0,0,0,0,0,0,0,0,0,0,0,0,0,0],"sum_hessian":[4.1E1,2.4E1,1.7E1,1.6E1,8E0,8E0,9E0,1.1E1,5E0,2E0,6E0,1E0,7E0,1E0,8E0,1E1,1E0,3E0,2E0,3E0,3E0,1E0,6E0,2E0,8E0,1E0,2E0,1E0,2E0],"tree_param":{"num_deleted":"0","num_feature":"8","num_nodes":"29","size_leaf_vector":"1"}},{"base_weights":[-8.143659E-1,-2.7665733E1,3.652444E1,-4.2866276E1,-4.422652E0,2.1806479E1,4.6118164E1,-5.3587246E1,-1.0706884E1,-1.1107639E1,1.7106527E1,1.1343603E1,1.3954028E0,4.85941E1,5.9586793E-1,-3.8251588E0,-3.5430878E1,5.016439E0,-1.1430624E0,-6.296387E-1,-1.4011405E1,1.0161622E0,2.668274E-1,1.5805665E-1,6.299469E-1,6.290283E-1,2.5761611E0,-1.9198731E0,-3.6661988E-1,2.6257325E-2,3.499756E-1,-1.2695923E-1,7.973633E-2,8.058472E-2,-8.441936E-1],"categories":[],"categories_nodes":[],"categories_segments":[],"categories_sizes":[],"default_left":[0,0,0,0,0,0,0,0,0,0,0,0,0,0,0,0,0,0,0,0,0,0,0,0,0,0,0,0,0,0,0,0,0,0,0],"id":18,"left_children":[1,3,5,7,9,11,13,15,17,19,21,23,-1,25,-1,-1,27,29,-1,31,33,-1,-1,-1,-1,-1,-1,-1,-1,-1,-1,-1,-1,-1,-1],"loss_changes":[4.311959E4,8.643104E3,1.5359238E3,4.5979473E3,1.7731581E3,2.5798242E2,2.6767773E2,1.8661953E3,1.0702169E3,2.650089E2,5.1260986E0,1.1531799E1,0E0,3.0120117E2,0E0,0E0,3.8530664E2,2.3043915E1,0E0,1.6791887E1,3.4134924E2,0E0,0E0,0E0,0E0,0E0,0E0,0E0,0E0,0E0,0E0,0E0,0E0,0E0,0E0],"parents":[2147483647,0,0,1,1,2,2,3,3,4,4,5,5,6,6,7,7,8,8,9,9,10,10,11,11,13,13,16,16,17,17,19,19,20,20],"right_children":[2,4,6,8,10,12,14,16,18,20,22,24,-1,26,-1,-1,28,30,-1,32,34,-1,-1,-1,-1,-1,-1,-1,-1,-1,-1,-1,-1,-1,-1],"split_conditions":[5.1899033E1,2.6991596E0,6.648424E1,1.4118528E-2,-5.6907806E0,1.787971E1,1.5005282E-2,-1.0827097E1,4.1520702E1,-1.466523E-2,1.6397625E-2,6.137449E0,1.3954028E0,1.1010061E-2,5.9586793E-1,-3.8251588E0,1.3500333E-2,-8.177432E-3,-1.1430624E0,-2.7597085E-2,3.2623375E1,1.0161622E0,2.668274E-1,1.5805665E-1,6.299469E-1,6.290283E-1,2.5761611E0,-1.9198731E0,-3.6661988E-1,2.6257325E-2,3.499756E-1,-1.2695923E-1,7.973633E-2,8.058472E-2,-8.441936E-1],"split_indices":[4,6,4,2,3,6,0,6,4,0,0,3,0,2,0,0,2,0,0,0,4,0,0,0,0,0,0,0,0,0,0,0,0,0,0],"split_type":[0,0,0,0,0,0,0,0,0,0,0,0,0,0,0,0,0,0,0,0,0,0,0,0,0,0,0,0,0,0,0,0,0,0,0],"sum_hessian":[4.1E1,2.4E1,1.7E1,1.4E1,1E1,8E0,9E0,1E1,4E0,8E0,2E0,4E0,4E0,8E0,1E0,3E0,7E0,2E0,2E0,2E0,6E0,1E0,1E0,1E0,3E0,1E0,7E0,6E0,1E0,1E0,1E0,1E0,1E0,1E0,5E0],"tree_param":{"num_deleted":"0","num_feature":"8","num_nodes":"35","size_leaf_vector":"1"}},{"base_weights":[-2.2892892E0,-2.4778393E1,3.5804153E1,-4.2199295E1,-8.028385E0,4.0682842E1,1.09973755E1,-4.9658825E1,-7.8125E-1,-1.3536641E1,1.0503479E1,4.5528664E1,9.1987914E-1,1.5410767E-1,6.304199E-1,-6.551479E1,-1.5619507E0,3.4122926E-1,-3.99823E-1,-5.9757757E0,-1.3582214E0,1.6678873E1,-2.0056763E-1,2.5469742E0,7.9617923E-1,-8.2592165E-1,-3.6817138E0,-1.3659842E-1,-5.776367E-1,9.907593E-1,2.6015624E-1],"categories":[],"categories_nodes":[],"categories_segments":[],"categories_sizes":[],"default_left":[0,0,0,0,0,0,0,0,0,0,0,0,0,0,0,0,0,0,0,0,0,0,0,0,0,0,0,0,0,0,0],"id":19,"left_children":[1,3,5,7,9,11,13,15,17,19,21,23,-1,-1,-1,25,-1,-1,-1,27,-1,29,-1,-1,-1,-1,-1,-1,-1,-1,-1],"loss_changes":[3.686804E4,7.5398125E3,1.4889902E3,3.9776758E3,1.6733556E3,5.6625586E2,1.2145386E1,1.1660859E3,2.192056E2,1.074126E3,4.2544403E2,7.9074023E2,0E0,0E0,0E0,7.7280273E2,0E0,0E0,0E0,1.3125351E2,0E0,4.8737183E0,0E0,0E0,0E0,0E0,0E0,0E0,0E0,0E0,0E0],"parents":[2147483647,0,0,1,1,2,2,3,3,4,4,5,5,6,6,7,7,8,8,9,9,10,10,11,11,15,15,19,19,21,21],"right_children":[2,4,6,8,10,12,14,16,18,20,22,24,-1,-1,-1,26,-1,-1,-1,28,-1,30,-1,-1,-1,-1,-1,-1,-1,-1,-1],"split_conditions":[5.1899033E1,-1.2046953E0,2.446052E-2,1.4118528E-2,7.158704E-3,4.2199738E1,2.5516236E-2,-2.3014243E-3,9.985114E-3,-6.2850015E-3,1.2894022E0,2.1924353E1,9.1987914E-1,1.5410767E-1,6.304199E-1,-8.4690976E-1,-1.5619507E0,3.4122926E-1,-3.99823E-1,-5.042075E0,-1.3582214E0,1.6397625E-2,-2.0056763E-1,2.5469742E0,7.9617923E-1,-8.2592165E-1,-3.6817138E0,-1.3659842E-1,-5.776367E-1,9.907593E-1,2.6015624E-1],"split_indices":[4,6,2,2,0,6,2,0,0,0,1,7,0,0,0,1,0,0,0,7,0,0,0,0,0,0,0,0,0,0,0],"split_type":[0,0,0,0,0,0,0,0,0,0,0,0,0,0,0,0,0,0,0,0,0,0,0,0,0,0,0,0,0,0,0],"sum_hessian":[4.1E1,2.6E1,1.5E1,1.2E1,1.4E1,1.2E1,3E0,1E1,2E0,1.1E1,3E0,9E0,3E0,1E0,2E0,4E0,6E0,1E0,1E0,8E0,3E0,2E0,1E0,7E0,2E0,1E0,3E0,6E0,2E0,1E0,1E0],"tree_param":{"num_deleted":"0","num_feature":"8","num_nodes":"31","size_leaf_vector":"1"}},{"base_weights":[-3.621245E-1,-2.6946936E1,3.0228516E1,-4.186118E1,-6.8712935E0,9.192291E0,4.0848614E1,-4.83305E1,-4.186605E0,-9.414551E0,4.64032E-1,-5.222412E0,1.4867595E1,2.4524689E0,2.3106161E1,-9.0338135E-1,-2.6524036E0,-3.4301147E-1,2.9016113E-2,-1.1720551E1,-1.270345E-1,-1.8554687E-3,-3.8982543E-1,2.6927084E-1,9.1311646E-1,2.4711914E-1,1.287522E0,1.1252441E-1,-7.018956E-1,8.115845E-2,-9.068604E-2],"categories":[],"categories_nodes":[],"categories_segments":[],"categories_sizes":[],"default_left":[0,0,0,0,0,0,0,0,0,0,0,0,0,0,0,0,0,0,0,0,0,0,0,0,0,0,0,0,0,0,0],"id":20,"left_children":[1,3,5,7,9,11,13,15,17,19,-1,21,23,-1,25,-1,-1,-1,-1,27,29,-1,-1,-1,-1,-1,-1,-1,-1,-1,-1],"loss_changes":[3.4970914E4,6.5988574E3,4.0926445E3,2.9661367E3,5.392369E2,7.3210724E2,7.5817773E2,6.119863E2,4.2216064E1,2.1268121E2,0E0,3.975309E1,9.478662E1,0E0,1.6091211E2,0E0,0E0,0E0,0E0,2.905996E2,1.1800107E1,0E0,0E0,0E0,0E0,0E0,0E0,0E0,0E0,0E0,0E0],"parents":[2147483647,0,0,1,1,2,2,3,3,4,4,5,5,6,6,7,7,8,8,9,9,11,11,12,12,14,14,19,19,20,20],"right_children":[2,4,6,8,10,12,14,16,18,20,-1,22,24,-1,26,-1,-1,-1,-1,28,30,-1,-1,-1,-1,-1,-1,-1,-1,-1,-1],"split_conditions":[2.3611288E-1,2.6991596E0,4.359759E0,-2.3069546E0,-5.6907806E0,-5.889084E-1,9.581312E0,-1.25452795E1,-1.1281167E-2,1.8084459E0,4.64032E-1,-1.1534876E-2,1.1209804E1,2.4524689E0,-1.629718E-2,-9.0338135E-1,-2.6524036E0,-3.4301147E-1,2.9016113E-2,3.2623375E1,-1.466523E-2,-1.8554687E-3,-3.8982543E-1,2.6927084E-1,9.1311646E-1,2.4711914E-1,1.287522E0,1.1252441E-1,-7.018956E-1,8.115845E-2,-9.068604E-2],"split_indices":[3,6,6,3,3,1,3,3,0,1,0,0,3,0,0,0,0,0,0,4,0,0,0,0,0,0,0,0,0,0,0],"split_type":[0,0,0,0,0,0,0,0,0,0,0,0,0,0,0,0,0,0,0,0,0,0,0,0,0,0,0,0,0,0,0],"sum_hessian":[4.1E1,2.2E1,1.9E1,1.2E1,1E1,7E0,1.2E1,1E1,2E0,9E0,1E0,2E0,5E0,7E0,5E0,2E0,8E0,1E0,1E0,7E0,2E0,1E0,1E0,2E0,3E0,1E0,4E0,1E0,6E0,1E0,1E0],"tree_param":{"num_deleted":"0","num_feature":"8","num_nodes":"31","size_leaf_vector":"1"}},{"base_weights":[-1.9160265E0,-2.3821333E1,3.226534E1,-5.2458088E1,-1.5315165E1,1.7307892E1,4.021027E1,-3.4807098E0,-6.0486245E-1,-2.3472542E1,6.6834893E0,3.6830446E-1,1.0899878E0,2.335614E0,8.576843E-1,-3.39812E1,-1.0355822E1,-3.0795288E0,7.3878175E-1,-7.276286E-1,-1.872665E0,1.0971069E-1,-6.099426E-1,1.7655438E-2,-3.3443603E-1],"categories":[],"categories_nodes":[],"categories_segments":[],"categories_sizes":[],"default_left":[0,0,0,0,0,0,0,0,0,0,0,0,0,0,0,0,0,0,0,0,0,0,0,0,0],"id":21,"left_children":[1,3,5,7,9,11,13,-1,-1,15,17,-1,-1,-1,-1,19,21,23,-1,-1,-1,-1,-1,-1,-1],"loss_changes":[3.44625E4,6.017091E3,1.4430918E3,3.3124688E3,4.284259E3,1.966792E2,8.477676E2,0E0,0E0,1.9913623E3,5.985284E2,0E0,0E0,0E0,0E0,6.208203E1,2.3493787E2,5.191803E1,0E0,0E0,0E0,0E0,0E0,0E0,0E0],"parents":[2147483647,0,0,1,1,2,2,3,3,4,4,5,5,6,6,9,9,10,10,15,15,16,16,17,17],"right_children":[2,4,6,8,10,12,14,-1,-1,16,18,-1,-1,-1,-1,20,22,24,-1,-1,-1,-1,-1,-1,-1],"split_conditions":[5.1899033E1,-1.0827097E1,1.787971E1,-2.3014243E-3,-1.2057338E0,1.7398298E1,4.2199738E1,-3.4807098E0,-6.0486245E-1,2.6991596E0,-8.177432E-3,3.6830446E-1,1.0899878E0,2.335614E0,8.576843E-1,4.205103E1,3.2623375E1,1.11746125E-1,7.3878175E-1,-7.276286E-1,-1.872665E0,1.0971069E-1,-6.099426E-1,1.7655438E-2,-3.3443603E-1],"split_indices":[4,6,6,0,3,3,6,0,0,6,0,0,0,0,0,4,4,1,0,0,0,0,0,0,0],"split_type":[0,0,0,0,0,0,0,0,0,0,0,0,0,0,0,0,0,0,0,0,0,0,0,0,0],"sum_hessian":[4.4E1,2.7E1,1.7E1,5E0,2.2E1,7E0,1E1,3E0,2E0,1.6E1,6E0,3E0,4E0,7E0,3E0,8E0,8E0,3E0,3E0,2E0,6E0,1E0,7E0,2E0,1E0],"tree_param":{"num_deleted":"0","num_feature":"8","num_nodes":"25","size_leaf_vector":"1"}},{"base_weights":[-3.5983554E-1,-1.907524E1,3.0486702E1,-2.8438667E1,-2.0191538E0,1.348584E1,3.8533913E1,-3.3967186E1,-5.970459E-1,1.2216309E1,-8.884491E0,1.3431397E-1,7.419027E-1,4.034336E1,5.109863E-1,-3.8505882E1,-2.0741495E1,4.069987E0,-3.649536E-1,8.8621217E-1,2.2361247E-1,-7.7388614E-1,-1.8330078E0,5.3395385E-1,2.1226413E0,-5.120911E-1,-2.0254178E0,-1.4065002E0,-1.9881593E-1,-2.2460937E-3,3.0749512E-1,9.4378665E-2,-1.6175233E-1],"categories":[],"categories_nodes":[],"categories_segments":[],"categories_sizes":[],"default_left":[0,0,0,0,0,0,0,0,0,0,0,0,0,0,0,0,0,0,0,0,0,0,0,0,0,0,0,0,0,0,0,0,0],"id":22,"left_children":[1,3,5,7,9,11,13,15,17,19,21,-1,-1,23,-1,25,27,29,-1,-1,-1,-1,31,-1,-1,-1,-1,-1,-1,-1,-1,-1,-1],"loss_changes":[2.5982979E4,4.4142734E3,1.8060996E3,2.750335E3,1.1835795E3,6.2364014E1,1.5126465E2,1.01740234E2,1.5482143E2,9.13479E1,3.4356567E2,0E0,0E0,1.7240039E2,0E0,1.5110059E2,6.3136426E2,2.5952255E1,0E0,0E0,0E0,0E0,3.2188377E1,0E0,0E0,0E0,0E0,0E0,0E0,0E0,0E0,0E0,0E0],"parents":[2147483647,0,0,1,1,2,2,3,3,4,4,5,5,6,6,7,7,8,8,9,9,10,10,13,13,15,15,16,16,17,17,22,22],"right_children":[2,4,6,8,10,12,14,16,18,20,22,-1,-1,24,-1,26,28,30,-1,-1,-1,-1,32,-1,-1,-1,-1,-1,-1,-1,-1,-1,-1],"split_conditions":[5.1899033E1,2.9033985E0,6.565799E1,1.4418727E-2,1.0821045E1,-1.6527536E1,4.2405624E1,-8.083109E0,1.5056612E-2,-3.8673642E-1,2.8711912E-1,1.3431397E-1,7.419027E-1,1.1010061E-2,5.109863E-1,-2.7016022E1,-2.3069546E0,-5.977756E-1,-3.649536E-1,8.8621217E-1,2.2361247E-1,-7.7388614E-1,1.2284653E-2,5.3395385E-1,2.1226413E0,-5.120911E-1,-2.0254178E0,-1.4065002E0,-1.9881593E-1,-2.2460937E-3,3.0749512E-1,9.4378665E-2,-1.6175233E-1],"split_indices":[4,6,4,2,6,5,3,5,2,1,1,0,0,2,0,5,3,1,0,0,0,0,2,0,0,0,0,0,0,0,0,0,0],"split_type":[0,0,0,0,0,0,0,0,0,0,0,0,0,0,0,0,0,0,0,0,0,0,0,0,0,0,0,0,0,0,0,0,0],"sum_hessian":[4.3E1,2.7E1,1.6E1,1.7E1,1E1,6E0,1E1,1.4E1,3E0,3E0,7E0,1E0,5E0,9E0,1E0,9E0,5E0,2E0,1E0,1E0,2E0,3E0,4E0,1E0,8E0,1E0,8E0,3E0,2E0,1E0,1E0,1E0,3E0],"tree_param":{"num_deleted":"0","num_feature":"8","num_nodes":"33","size_leaf_vector":"1"}},{"base_weights":[8.414714E-1,-2.115746E1,3.0555233E1,-2.8254122E1,-9.002162E-1,1.7605387E1,4.0110054E1,-3.4838154E1,-5.4848146E0,-5.4416504E0,3.4844562E-1,3.342621E-1,1.0975627E0,2.2405152E0,7.886393E-1,-3.72702E1,-1.4307942E1,-1.0980408E1,4.1243896E-1,-2.1911622E-3,-3.390076E-1,-4.992859E-1,-1.9500036E0,-1.1059144E0,3.2818604E-2,9.20166E-2,-7.933716E-1],"categories":[],"categories_nodes":[],"categories_segments":[],"categories_sizes":[],"default_left":[0,0,0,0,0,0,0,0,0,0,0,0,0,0,0,0,0,0,0,0,0,0,0,0,0,0,0],"id":23,"left_children":[1,3,5,7,9,11,13,15,17,19,-1,-1,-1,-1,-1,21,23,25,-1,-1,-1,-1,-1,-1,-1,-1,-1],"loss_changes":[2.613964E4,3.2810186E3,1.3973154E3,2.357454E3,2.880823E2,2.8036816E2,3.227373E2,1.15833984E2,4.6794617E2,3.582785E1,0E0,0E0,0E0,0E0,0E0,1.2974316E2,3.651471E2,2.798224E2,0E0,0E0,0E0,0E0,0E0,0E0,0E0,0E0,0E0],"parents":[2147483647,0,0,1,1,2,2,3,3,4,4,5,5,6,6,7,7,8,8,9,9,15,15,16,16,17,17],"right_children":[2,4,6,8,10,12,14,16,18,20,-1,-1,-1,-1,-1,22,24,26,-1,-1,-1,-1,-1,-1,-1,-1,-1],"split_conditions":[1.1229672E0,1.4418727E-2,1.787971E1,1.1413385E0,-3.8050644E-2,1.7398298E1,4.2199738E1,1.4118528E-2,1.2955094E-2,-1.1534876E-2,3.4844562E-1,3.342621E-1,1.0975627E0,2.2405152E0,7.886393E-1,-2.7016022E1,-2.1745428E-2,-1.466523E-2,4.1243896E-1,-2.1911622E-3,-3.390076E-1,-4.992859E-1,-1.9500036E0,-1.1059144E0,3.2818604E-2,9.20166E-2,-7.933716E-1],"split_indices":[7,2,6,5,1,3,6,2,2,0,0,0,0,0,0,5,0,0,0,0,0,0,0,0,0,0,0],"split_type":[0,0,0,0,0,0,0,0,0,0,0,0,0,0,0,0,0,0,0,0,0,0,0,0,0,0,0],"sum_hessian":[3.8E1,2.2E1,1.6E1,1.6E1,6E0,8E0,8E0,1.2E1,4E0,4E0,2E0,3E0,5E0,6E0,2E0,1E1,2E0,3E0,1E0,1E0,3E0,1E0,9E0,1E0,1E0,1E0,2E0],"tree_param":{"num_deleted":"0","num_feature":"8","num_nodes":"27","size_leaf_vector":"1"}},{"base_weights":[1.1462232E0,-1.8190166E1,2.9012886E1,-5.2235046E1,-1.1478441E1,2.1385672E1,2.2283254E0,-3.1578004E0,-4.8680422E-1,-5.76078E-1,-2.3319557E1,2.9241943E-1,2.3487854E1,-6.4211183E0,1.4180542E1,-2.8796265E1,-6.536255E0,2.0482789E-1,1.2439142E0,9.457194E-2,-4.3678436E-1,8.026042E-1,2.1414796E-1,-7.963647E-1,-1.8841705E0,-7.9437256E-2,-3.8279217E-1],"categories":[],"categories_nodes":[],"categories_segments":[],"categories_sizes":[],"default_left":[0,0,0,0,0,0,0,0,0,0,0,0,0,0,0,0,0,0,0,0,0,0,0,0,0,0,0],"id":24,"left_children":[1,3,5,7,9,11,-1,-1,-1,13,15,-1,17,19,21,23,25,-1,-1,-1,-1,-1,-1,-1,-1,-1,-1],"loss_changes":[2.3697896E4,5.34142E3,1.1822695E3,1.241626E3,2.955778E3,3.199048E2,0E0,0E0,0E0,1.2123445E3,8.228696E2,0E0,2.2163086E2,2.0892291E2,5.3445435E0,3.1475244E2,9.9935E0,0E0,0E0,0E0,0E0,0E0,0E0,0E0,0E0,0E0,0E0],"parents":[2147483647,0,0,1,1,2,2,3,3,4,4,5,5,9,9,10,10,12,12,13,13,14,14,15,15,16,16],"right_children":[2,4,6,8,10,12,-1,-1,-1,14,16,-1,18,20,22,24,26,-1,-1,-1,-1,-1,-1,-1,-1,-1,-1],"split_conditions":[5.1899033E1,3.1748528E1,4.5288902E1,-1.6865728E-2,4.1520702E1,-5.9728413E0,2.2283254E0,-3.1578004E0,-4.8680422E-1,9.96433E-4,1.1413385E0,2.9241943E-1,-1.629718E-2,-7.2554455E0,1.6397625E-2,-9.816589E0,4.436094E1,2.0482789E-1,1.2439142E0,9.457194E-2,-4.3678436E-1,8.026042E-1,2.1414796E-1,-7.963647E-1,-1.8841705E0,-7.9437256E-2,-3.8279217E-1],"split_indices":[4,4,5,0,4,5,0,0,0,0,5,0,0,5,0,5,4,0,0,0,0,0,0,0,0,0,0],"split_type":[0,0,0,0,0,0,0,0,0,0,0,0,0,0,0,0,0,0,0,0,0,0,0,0,0,0,0],"sum_hessian":[4.2E1,2.5E1,1.7E1,3E0,2.2E1,1.3E1,4E0,2E0,1E0,1.2E1,1E1,2E0,1.1E1,9E0,3E0,7E0,3E0,1E0,1E1,2E0,7E0,2E0,1E0,4E0,3E0,1E0,2E0],"tree_param":{"num_deleted":"0","num_feature":"8","num_nodes":"27","size_leaf_vector":"1"}},{"base_weights":[-6.549782E-2,-1.835978E1,2.6363213E1,-5.2414894E1,-9.785445E0,2.08069E1,2.3604574E0,-3.11221E0,-3.2744142E-1,-2.412497E0,-2.9044556E1,2.826701E-1,2.2567871E1,-7.405142E0,1.1050879E1,-1.583794E0,-3.971985E-1,1.9970703E-1,1.184469E0,-6.8085635E-1,-2.0899169E-1,8.78296E-3,6.862885E-1],"categories":[],"categories_nodes":[],"categories_segments":[],"categories_sizes":[],"default_left":[0,0,0,0,0,0,0,0,0,0,0,0,0,0,0,0,0,0,0,0,0,0,0],"id":25,"left_children":[1,3,5,7,9,11,-1,-1,-1,13,15,-1,17,19,21,-1,-1,-1,-1,-1,-1,-1,-1],"loss_changes":[2.1274277E4,7.0790947E3,1.1026025E3,1.8465322E3,3.053851E3,2.9937256E2,0E0,0E0,0E0,1.2245369E3,8.150293E1,0E0,1.9700928E2,2.0354498E2,1.43039E2,0E0,0E0,0E0,0E0,0E0,0E0,0E0,0E0],"parents":[2147483647,0,0,1,1,2,2,3,3,4,4,5,5,9,9,10,10,12,12,13,13,14,14],"right_children":[2,4,6,8,10,12,-1,-1,-1,14,16,-1,18,20,22,-1,-1,-1,-1,-1,-1,-1,-1],"split_conditions":[5.1899033E1,-1.0827097E1,8.102082E1,-2.3014243E-3,4.486914E1,-5.9728413E0,2.3604574E0,-3.11221E0,-3.2744142E-1,2.3611288E-1,4.7294533E1,2.826701E-1,-1.629718E-2,-1.5132663E1,-1.1534876E-2,-1.583794E0,-3.971985E-1,1.9970703E-1,1.184469E0,-6.8085635E-1,-2.0899169E-1,8.78296E-3,6.862885E-1],"split_indices":[4,6,4,0,4,5,0,0,0,3,4,0,0,5,0,0,0,0,0,0,0,0,0],"split_type":[0,0,0,0,0,0,0,0,0,0,0,0,0,0,0,0,0,0,0,0,0,0,0],"sum_hessian":[4.2E1,2.5E1,1.7E1,4E0,2.1E1,1.5E1,2E0,3E0,1E0,1.6E1,5E0,2E0,1.3E1,1.2E1,4E0,4E0,1E0,1E0,1.2E1,3E0,9E0,1E0,3E0],"tree_param":{"num_deleted":"0","num_feature":"8","num_nodes":"23","size_leaf_vector":"1"}},{"base_weights":[1.3375102E0,-1.5821355E1,2.6048231E1,-2.4108212E1,-1.515625E-1,1.3678406E1,3.267645E1,-2.9111938E1,-5.6811523E-1,1.1799438E1,-6.959054E0,3.0229187E-1,8.524389E-1,1.9117768E0,6.6945803E-1,-4.1503174E1,-2.1959496E1,3.4992676E0,-3.192566E-1,8.75586E-1,2.0290528E-1,-6.818319E-1,-1.5606934E0,-2.4559124E0,-4.66449E-1,-4.046094E-1,-1.4363822E0,8.563233E-3,2.5388184E-1,1.0585938E-1,-1.5047303E-1],"categories":[],"categories_nodes":[],"categories_segments":[],"categories_sizes":[],"default_left":[0,0,0,0,0,0,0,0,0,0,0,0,0,0,0,0,0,0,0,0,0,0,0,0,0,0,0,0,0,0,0],"id":26,"left_children":[1,3,5,7,9,11,13,15,17,19,21,-1,-1,-1,-1,23,25,27,-1,-1,-1,-1,29,-1,-1,-1,-1,-1,-1,-1,-1],"loss_changes":[1.8644459E4,3.3725322E3,1.0288555E3,1.9858604E3,8.956763E2,1.0272278E2,6.674746E2,3.2939746E2,1.1698342E2,1.0581824E2,2.310534E2,0E0,0E0,0E0,0E0,5.21812E2,7.999463E2,1.4888828E1,0E0,0E0,0E0,0E0,3.3013557E1,0E0,0E0,0E0,0E0,0E0,0E0,0E0,0E0],"parents":[2147483647,0,0,1,1,2,2,3,3,4,4,5,5,6,6,7,7,8,8,9,9,10,10,15,15,16,16,17,17,22,22],"right_children":[2,4,6,8,10,12,14,16,18,20,22,-1,-1,-1,-1,24,26,28,-1,-1,-1,-1,30,-1,-1,-1,-1,-1,-1,-1,-1],"split_conditions":[5.1899033E1,2.9033985E0,1.787971E1,1.4418727E-2,-4.5729403E0,6.565799E1,4.2199738E1,-1.0827097E1,9.985114E-3,-3.8673642E-1,2.8711912E-1,3.0229187E-1,8.524389E-1,1.9117768E0,6.6945803E-1,-2.3014243E-3,4.205103E1,-1.1534876E-2,-3.192566E-1,8.75586E-1,2.0290528E-1,-6.818319E-1,1.2284653E-2,-2.4559124E0,-4.66449E-1,-4.046094E-1,-1.4363822E0,8.563233E-3,2.5388184E-1,1.0585938E-1,-1.5047303E-1],"split_indices":[4,6,6,2,5,4,6,6,0,1,1,0,0,0,0,0,4,0,0,0,0,0,2,0,0,0,0,0,0,0,0],"split_type":[0,0,0,0,0,0,0,0,0,0,0,0,0,0,0,0,0,0,0,0,0,0,0,0,0,0,0,0,0,0,0],"sum_hessian":[4.2E1,2.5E1,1.7E1,1.6E1,9E0,7E0,1E1,1.3E1,3E0,3E0,6E0,3E0,4E0,7E0,3E0,3E0,1E1,2E0,1E0,1E0,2E0,2E0,4E0,2E0,1E0,4E0,6E0,1E0,1E0,1E0,3E0],"tree_param":{"num_deleted":"0","num_feature":"8","num_nodes":"31","size_leaf_vector":"1"}},{"base_weights":[2.9283002E-1,-1.7855995E1,2.5112652E1,-4.3819134E1,-9.587669E0,2.0238668E1,2.2180502E0,-2.903406E0,-5.107056E-1,-1.3515869E1,1.0486145E1,7.2128906E0,2.25147E1,-1.8442652E1,-6.5399036E0,8.5369873E-1,2.598877E0,1.00665286E-1,4.137492E-1,3.2468262E-1,1.1623789E0,-1.1023849E0,-1.3408203E-1,-5.140088E-1,-7.458252E-2,8.34961E-3,1.8656616E-1],"categories":[],"categories_nodes":[],"categories_segments":[],"categories_sizes":[],"default_left":[0,0,0,0,0,0,0,0,0,0,0,0,0,0,0,0,0,0,0,0,0,0,0,0,0,0,0],"id":27,"left_children":[1,3,5,7,9,11,-1,-1,-1,13,15,17,19,21,23,-1,25,-1,-1,-1,-1,-1,-1,-1,-1,-1,-1],"loss_changes":[2.0268236E4,5.16134E3,8.846992E2,2.2799102E3,1.7976624E3,3.416045E2,0E0,0E0,0E0,4.9803003E2,1.6346677E2,5.4297028E0,1.3418457E1,5.0906787E2,1.5460214E2,0E0,7.638836E0,0E0,0E0,0E0,0E0,0E0,0E0,0E0,0E0,0E0,0E0],"parents":[2147483647,0,0,1,1,2,2,3,3,4,4,5,5,9,9,10,10,11,11,12,12,13,13,14,14,16,16],"right_children":[2,4,6,8,10,12,-1,-1,-1,14,16,18,20,22,24,-1,26,-1,-1,-1,-1,-1,-1,-1,-1,-1,-1],"split_conditions":[5.1899033E1,-1.0827097E1,8.102082E1,-2.3014243E-3,2.3611288E-1,2.828706E0,2.2180502E0,-2.903406E0,-5.107056E-1,2.9033985E0,2.1446378E0,6.137449E0,-7.7446836E-1,-2.3069546E0,2.8711912E-1,8.5369873E-1,-1.1534876E-2,1.00665286E-1,4.137492E-1,3.2468262E-1,1.1623789E0,-1.1023849E0,-1.3408203E-1,-5.140088E-1,-7.458252E-2,8.34961E-3,1.8656616E-1],"split_indices":[4,6,4,0,3,5,0,0,0,6,3,3,1,3,1,0,0,0,0,0,0,0,0,0,0,0,0],"split_type":[0,0,0,0,0,0,0,0,0,0,0,0,0,0,0,0,0,0,0,0,0,0,0,0,0,0,0],"sum_hessian":[4.3E1,2.5E1,1.8E1,5E0,2E1,1.6E1,2E0,3E0,2E0,1.7E1,3E0,3E0,1.3E1,9E0,8E0,1E0,2E0,1E0,2E0,1E0,1.2E1,7E0,2E0,4E0,4E0,1E0,1E0],"tree_param":{"num_deleted":"0","num_feature":"8","num_nodes":"27","size_leaf_vector":"1"}},{"base_weights":[-2.998554E0,-1.8527657E1,2.3083187E1,-2.770162E0,-1.2912248E1,2.47885E1,3.9995524E-1,-1.950994E1,-2.384253E0,1.2827626E0,3.596863E-1,-2.7387234E1,-4.4423423E0,-5.879883E0,4.3291626E0,-5.9052736E-1,-1.6603577E0,1.2490234E-2,-6.9757694E-1,-6.48407E-2,-4.4964907E-1,8.14209E-3,2.831828E-1],"categories":[],"categories_nodes":[],"categories_segments":[],"categories_sizes":[],"default_left":[0,0,0,0,0,0,0,0,0,0,0,0,0,0,0,0,0,0,0,0,0,0,0],"id":28,"left_children":[1,3,5,-1,7,9,-1,11,13,-1,-1,15,17,19,21,-1,-1,-1,-1,-1,-1,-1,-1],"loss_changes":[1.6223691E4,4.4614062E3,1.8756055E2,0E0,1.5510742E3,1.3697754E1,0E0,1.5400225E3,2.6013113E2,0E0,0E0,4.2370166E2,2.711964E2,8.8210556E1,2.1317421E1,0E0,0E0,0E0,0E0,0E0,0E0,0E0,0E0],"parents":[2147483647,0,0,1,1,2,2,4,4,5,5,7,7,8,8,11,11,12,12,13,13,14,14],"right_children":[2,4,6,-1,8,10,-1,12,14,-1,-1,16,18,20,22,-1,-1,-1,-1,-1,-1,-1,-1],"split_conditions":[1.1229672E0,-1.6865728E-2,2.446052E-2,-2.770162E0,1.3500333E-2,4.2405624E1,3.9995524E-1,1.1413385E0,3.719241E0,1.2827626E0,3.596863E-1,-1.5408977E1,6.1335956E-4,-7.2554455E0,-1.1534876E-2,-5.9052736E-1,-1.6603577E0,1.2490234E-2,-6.9757694E-1,-6.48407E-2,-4.4964907E-1,8.14209E-3,2.831828E-1],"split_indices":[7,0,2,0,2,3,0,5,3,0,0,5,0,5,0,0,0,0,0,0,0,0,0],"split_type":[0,0,0,0,0,0,0,0,0,0,0,0,0,0,0,0,0,0,0,0,0,0,0],"sum_hessian":[3.8E1,2.4E1,1.4E1,2E0,2.2E1,1.2E1,2E0,1.3E1,9E0,1.1E1,1E0,8E0,5E0,6E0,3E0,3E0,5E0,4E0,1E0,3E0,3E0,1E0,2E0],"tree_param":{"num_deleted":"0","num_feature":"8","num_nodes":"23","size_leaf_vector":"1"}},{"base_weights":[5.1019438E-2,-1.4309308E1,2.5896208E1,-2.2155891E1,-8.819247E-1,3.555329E1,1.5507786E1,-2.9080791E1,2.800293E-1,1.1708069E1,-7.066681E0,5.114624E-1,1.9034547E0,1.260315E-1,8.4080505E-1,-4.1832966E1,-1.5881561E1,3.3188477E0,-2.968811E-1,8.7386477E-1,1.9796143E-1,-6.5710145E-1,-7.930664E-1,-4.7201538E-1,-2.321172E0,-8.4137315E-1,-2.3150635E-1,7.940674E-3,2.1596272E-1,6.903076E-2,-1.3511963E-1],"categories":[],"categories_nodes":[],"categories_segments":[],"categories_sizes":[],"default_left":[0,0,0,0,0,0,0,0,0,0,0,0,0,0,0,0,0,0,0,0,0,0,0,0,0,0,0,0,0,0,0],"id":29,"left_children":[1,3,5,7,9,11,13,15,17,19,21,-1,-1,-1,-1,23,25,27,-1,-1,-1,-1,29,-1,-1,-1,-1,-1,-1,-1,-1],"loss_changes":[1.5587517E4,2.8251553E3,9.534756E2,2.649374E3,9.392636E2,5.655371E1,1.1053418E2,1.5237734E3,1.1417763E2,1.0962268E2,2.944926E2,0E0,0E0,0E0,0E0,4.539336E2,7.2286377E0,1.1959324E1,0E0,0E0,0E0,0E0,2.4482302E1,0E0,0E0,0E0,0E0,0E0,0E0,0E0,0E0],"parents":[2147483647,0,0,1,1,2,2,3,3,4,4,5,5,6,6,7,7,8,8,9,9,10,10,15,15,16,16,17,17,22,22],"right_children":[2,4,6,8,10,12,14,16,18,20,22,-1,-1,-1,-1,24,26,28,-1,-1,-1,-1,30,-1,-1,-1,-1,-1,-1,-1,-1],"split_conditions":[5.4978714E1,2.9033985E0,8.089788E0,3.4788854E0,1.0821045E1,-4.481165E0,-1.629718E-2,-1.3118343E-1,1.5561326E-2,-3.8673642E-1,2.8711912E-1,5.114624E-1,1.9034547E0,1.260315E-1,8.4080505E-1,-8.4690976E-1,-1.2057338E0,-1.1534876E-2,-2.968811E-1,8.7386477E-1,1.9796143E-1,-6.5710145E-1,-1.466523E-2,-4.7201538E-1,-2.321172E0,-8.4137315E-1,-2.3150635E-1,7.940674E-3,2.1596272E-1,6.903076E-2,-1.3511963E-1],"split_indices":[4,6,3,3,6,3,0,1,0,1,1,0,0,0,0,1,3,0,0,0,0,0,0,0,0,0,0,0,0,0,0],"split_type":[0,0,0,0,0,0,0,0,0,0,0,0,0,0,0,0,0,0,0,0,0,0,0,0,0,0,0,0,0,0,0],"sum_hessian":[4E1,2.6E1,1.4E1,1.6E1,1E1,6E0,8E0,1.2E1,4E0,3E0,7E0,1E0,5E0,1E0,7E0,5E0,7E0,3E0,1E0,1E0,2E0,3E0,4E0,1E0,4E0,6E0,1E0,1E0,2E0,2E0,2E0],"tree_param":{"num_deleted":"0","num_feature":"8","num_nodes":"31","size_leaf_vector":"1"}},{"base_weights":[-2.011835E-2,-1.8172565E1,2.0856201E1,-2.7657925E1,-3.0758057E0,7.1288147E0,2.7699501E1,-2.4049225E0,-1.771065E1,-8.001526E0,5.542359E-1,9.80127E0,-2.8945923E-1,1.8069824E0,1.5302281E1,-9.360631E0,-1.2929273E0,1.3345541E0,-1.13359785E1,8.275147E-2,5.441569E-1,1.2288208E-1,8.5167235E-1,-1.1332194E-1,-5.87251E-1,-2.9418946E-3,1.03033446E-1,-6.272046E-1,-1.3238525E-1],"categories":[],"categories_nodes":[],"categories_segments":[],"categories_sizes":[],"default_left":[0,0,0,0,0,0,0,0,0,0,0,0,0,0,0,0,0,0,0,0,0,0,0,0,0,0,0,0,0],"id":30,"left_children":[1,3,5,7,9,11,13,-1,15,17,-1,19,-1,-1,21,23,-1,25,27,-1,-1,-1,-1,-1,-1,-1,-1,-1,-1],"loss_changes":[1.6295175E4,3.2084878E3,1.6813467E3,1.9947305E3,7.862023E2,3.3292346E2,8.0722754E2,0E0,5.063335E2,2.641742E2,0E0,4.3680298E1,0E0,0E0,1.1379138E2,9.178784E1,0E0,3.1565332E0,2.9765442E1,0E0,0E0,0E0,0E0,0E0,0E0,0E0,0E0,0E0,0E0],"parents":[2147483647,0,0,1,1,2,2,3,3,4,4,5,5,6,6,8,8,9,9,11,11,14,14,15,15,17,17,18,18],"right_children":[2,4,6,8,10,12,14,-1,16,18,-1,20,-1,-1,22,24,-1,26,28,-1,-1,-1,-1,-1,-1,-1,-1,-1,-1],"split_conditions":[2.3611288E-1,2.6991596E0,4.359759E0,-1.6865728E-2,-5.6907806E0,2.6204595E-2,8.089788E0,-2.4049225E0,4.4045914E1,-1.466523E-2,5.542359E-1,-2.5115347E-1,-2.8945923E-1,1.8069824E0,-1.629718E-2,-8.177432E-3,-1.2929273E0,-2.7597085E-2,9.96433E-4,8.275147E-2,5.441569E-1,1.2288208E-1,8.5167235E-1,-1.1332194E-1,-5.87251E-1,-2.9418946E-3,1.03033446E-1,-6.272046E-1,-1.3238525E-1],"split_indices":[3,6,6,0,3,0,3,0,4,0,0,1,0,0,0,0,0,0,0,0,0,0,0,0,0,0,0,0,0],"split_type":[0,0,0,0,0,0,0,0,0,0,0,0,0,0,0,0,0,0,0,0,0,0,0,0,0,0,0,0,0],"sum_hessian":[4.1E1,2.2E1,1.9E1,1.3E1,9E0,7E0,1.2E1,3E0,1E1,7E0,2E0,6E0,1E0,6E0,6E0,6E0,4E0,2E0,5E0,1E0,5E0,1E0,5E0,2E0,4E0,1E0,1E0,4E0,1E0],"tree_param":{"num_deleted":"0","num_feature":"8","num_nodes":"29","size_leaf_vector":"1"}},{"base_weights":[-1.3190464E0,-1.5931044E1,2.1965836E1,-2.6207855E1,-9.010417E-1,1.2294407E1,2.9196615E1,-3.2071926E1,-5.9765625E-1,-6.8988986E0,1.2819397E1,2.2557679E-1,7.71696E-1,1.6561192E0,5.15214E-1,-4.445469E1,-2.1629068E1,2.9660645E0,-2.8222045E-1,1.3284913E-1,-8.425507E0,7.5044763E-1,1.5626831E-1,-2.5826478E0,-3.9154053E-1,-1.2271031E0,-3.8111982E-1,5.670166E-3,2.1678467E-1,-5.447897E-1,-3.3821616E-2],"categories":[],"categories_nodes":[],"categories_segments":[],"categories_sizes":[],"default_left":[0,0,0,0,0,0,0,0,0,0,0,0,0,0,0,0,0,0,0,0,0,0,0,0,0,0,0,0,0,0,0],"id":31,"left_children":[1,3,5,7,9,11,13,15,17,19,21,-1,-1,-1,-1,23,25,27,-1,-1,29,-1,-1,-1,-1,-1,-1,-1,-1,-1,-1],"loss_changes":[1.4980198E4,4.146819E3,8.298887E2,2.383713E3,1.0759584E3,1.5027917E2,3.261997E2,7.195342E2,8.8682556E1,1.536792E2,3.7993958E1,0E0,0E0,0E0,0E0,9.136582E2,1.8014307E2,1.122958E1,0E0,0E0,1.4576923E2,0E0,0E0,0E0,0E0,0E0,0E0,0E0,0E0,0E0,0E0],"parents":[2147483647,0,0,1,1,2,2,3,3,4,4,5,5,6,6,7,7,8,8,9,9,10,10,15,15,16,16,17,17,20,20],"right_children":[2,4,6,8,10,12,14,16,18,20,22,-1,-1,-1,-1,24,26,28,-1,-1,30,-1,-1,-1,-1,-1,-1,-1,-1,-1,-1],"split_conditions":[1.1229672E0,2.6991596E0,1.787971E1,1.4418727E-2,-5.6907806E0,1.7398298E1,4.2199738E1,-1.0827097E1,9.985114E-3,-9.733468E0,1.6397625E-2,2.2557679E-1,7.71696E-1,1.6561192E0,5.15214E-1,-2.3014243E-3,-2.3069546E0,-1.1534876E-2,-2.8222045E-1,1.3284913E-1,2.3089483E1,7.5044763E-1,1.5626831E-1,-2.5826478E0,-3.9154053E-1,-1.2271031E0,-3.8111982E-1,5.670166E-3,2.1678467E-1,-5.447897E-1,-3.3821616E-2],"split_indices":[7,6,6,2,3,3,6,6,0,5,0,0,0,0,0,0,3,0,0,0,5,0,0,0,0,0,0,0,0,0,0],"split_type":[0,0,0,0,0,0,0,0,0,0,0,0,0,0,0,0,0,0,0,0,0,0,0,0,0,0,0,0,0,0,0],"sum_hessian":[4.2E1,2.6E1,1.6E1,1.5E1,1.1E1,8E0,8E0,1.2E1,3E0,8E0,3E0,3E0,5E0,6E0,2E0,4E0,8E0,2E0,1E0,1E0,7E0,2E0,1E0,3E0,1E0,6E0,2E0,1E0,1E0,5E0,2E0],"tree_param":{"num_deleted":"0","num_feature":"8","num_nodes":"31","size_leaf_vector":"1"}},{"base_weights":[1.49468E0,-1.2938935E1,2.0407612E1,-2.1873047E1,-1.437561E0,1.6023294E1,1.9224771E0,-2.6690601E1,-7.86333E0,1.2234863E1,-5.395532E0,8.9108104E-1,5.7233276E0,-2.0336142E0,-1.8111145E1,9.8168945E-1,-7.04362E-1,1.295288E-1,7.8808594E-1,-9.685628E0,8.316895E-1,7.5042725E-2,3.315267E-1,-1.2309388E0,-4.6414062E-1,5.529785E-3,6.809693E-2,-2.0202638E-3,-5.803296E-1,1.7762451E-1,-1.08317055E-1],"categories":[],"categories_nodes":[],"categories_segments":[],"categories_sizes":[],"default_left":[0,0,0,0,0,0,0,0,0,0,0,0,0,0,0,0,0,0,0,0,0,0,0,0,0,0,0,0,0,0,0],"id":32,"left_children":[1,3,5,7,9,11,-1,13,15,17,19,-1,21,-1,23,25,-1,-1,-1,27,29,-1,-1,-1,-1,-1,-1,-1,-1,-1,-1],"loss_changes":[1.2002277E4,2.53742E3,8.868418E2,7.3501855E2,7.153944E2,2.1288672E2,0E0,4.6293115E2,2.8908228E2,6.1210083E1,2.7520923E2,0E0,5.371155E0,0E0,2.3108057E2,8.430731E-1,0E0,0E0,0E0,1.1069971E2,4.8481125E1,0E0,0E0,0E0,0E0,0E0,0E0,0E0,0E0,0E0,0E0],"parents":[2147483647,0,0,1,1,2,2,3,3,4,4,5,5,7,7,8,8,9,9,10,10,12,12,14,14,15,15,19,19,20,20],"right_children":[2,4,6,8,10,12,-1,14,16,18,20,-1,22,-1,24,26,-1,-1,-1,28,30,-1,-1,-1,-1,-1,-1,-1,-1,-1,-1],"split_conditions":[5.1899033E1,2.6991596E0,8.102082E1,1.4118528E-2,-8.779415E0,2.446052E-2,1.9224771E0,-1.0827097E1,4.022337E1,-4.4433924E-4,1.1324598E0,8.9108104E-1,2.5516236E-2,-2.0336142E0,-1.4658883E-1,-1.1534876E-2,-7.04362E-1,1.295288E-1,7.8808594E-1,-2.7597085E-2,3.8509964E1,7.5042725E-2,3.315267E-1,-1.2309388E0,-4.6414062E-1,5.529785E-3,6.809693E-2,-2.0202638E-3,-5.803296E-1,1.7762451E-1,-1.08317055E-1],"split_indices":[4,6,4,2,5,2,0,6,4,0,1,0,2,0,1,0,0,0,0,0,4,0,0,0,0,0,0,0,0,0,0],"split_type":[0,0,0,0,0,0,0,0,0,0,0,0,0,0,0,0,0,0,0,0,0,0,0,0,0,0,0,0,0,0,0],"sum_hessian":[4.2E1,2.4E1,1.8E1,1.3E1,1.1E1,1.6E1,2E0,9E0,4E0,2E0,9E0,1.3E1,3E0,2E0,7E0,2E0,2E0,1E0,1E0,5E0,4E0,1E0,2E0,3E0,4E0,1E0,1E0,1E0,4E0,2E0,2E0],"tree_param":{"num_deleted":"0","num_feature":"8","num_nodes":"31","size_leaf_vector":"1"}},{"base_weights":[-1.4159248E0,-1.4432887E1,2.1452255E1,-2.1037443E1,-4.4094238E-1,1.6552298E1,1.8583984E0,-4.1199757E1,-1.2914176E1,-2.8829753E-1,1.6110535E0,8.8543195E-1,3.2047528E-1,-2.4095306E0,-3.309082E-1,-1.6032E1,7.683838E-1,3.3129535E0,-2.5755617E-1,-4.7859564E-1,-1.1525066E0,2.278646E-3,2.3053956E-1],"categories":[],"categories_nodes":[],"categories_segments":[],"categories_sizes":[],"default_left":[0,0,0,0,0,0,0,0,0,0,0,0,0,0,0,0,0,0,0,0,0,0,0],"id":33,"left_children":[1,3,5,7,9,11,-1,13,15,-1,17,-1,-1,-1,-1,19,-1,21,-1,-1,-1,-1,-1],"loss_changes":[1.310961E4,2.5782202E3,6.1688525E2,2.579833E3,1.185582E2,5.06958E1,0E0,8.898418E2,1.5690417E3,0E0,1.0913382E2,0E0,0E0,0E0,0E0,4.1409424E2,0E0,2.947358E1,0E0,0E0,0E0,0E0,0E0],"parents":[2147483647,0,0,1,1,2,2,3,3,4,4,5,5,7,7,8,8,10,10,15,15,17,17],"right_children":[2,4,6,8,10,12,-1,14,16,-1,18,-1,-1,-1,-1,20,-1,22,-1,-1,-1,-1,-1],"split_conditions":[5.4978714E1,1.4418727E-2,8.102082E1,-1.0827097E1,-1.8340631E1,2.446052E-2,1.8583984E0,-2.3014243E-3,1.2407552E-2,-2.8829753E-1,2.6204595E-2,8.8543195E-1,3.2047528E-1,-2.4095306E0,-3.309082E-1,5.947256E-4,7.683838E-1,-1.1534876E-2,-2.5755617E-1,-4.7859564E-1,-1.1525066E0,2.278646E-3,2.3053956E-1],"split_indices":[4,2,4,6,7,2,0,0,0,0,0,0,0,0,0,0,0,0,0,0,0,0,0],"split_type":[0,0,0,0,0,0,0,0,0,0,0,0,0,0,0,0,0,0,0,0,0,0,0],"sum_hessian":[4.2E1,2.7E1,1.5E1,1.8E1,9E0,1.3E1,2E0,4E0,1.4E1,2E0,7E0,1.1E1,2E0,3E0,1E0,1.3E1,1E0,6E0,1E0,8E0,5E0,2E0,4E0],"tree_param":{"num_deleted":"0","num_feature":"8","num_nodes":"23","size_leaf_vector":"1"}},{"base_weights":[-1.4987682E0,-1.4152352E1,1.9430592E1,-3.4747395E1,-8.1644125E0,1.483553E1,1.7964518E0,-2.3191774E0,-3.8250324E-1,-1.2240877E1,8.959033E0,5.320923E0,1.6770773E1,-1.8316113E1,-4.9415526E0,6.4825845E-1,1.9665527E0,6.740723E-2,3.0979005E-1,1.7456453E1,2.307068E-1,-3.6184692E-1,-1.1015242E0,7.9711914E-2,-3.38739E-1,5.3344727E-3,1.4215699E-1,9.113062E-1,2.4399415E-1],"categories":[],"categories_nodes":[],"categories_segments":[],"categories_sizes":[],"default_left":[0,0,0,0,0,0,0,0,0,0,0,0,0,0,0,0,0,0,0,0,0,0,0,0,0,0,0,0,0],"id":34,"left_children":[1,3,5,7,9,11,-1,-1,-1,13,15,17,19,21,23,-1,25,-1,-1,27,-1,-1,-1,-1,-1,-1,-1,-1,-1],"loss_changes":[1.192757E4,3.1693208E3,7.557666E2,1.5370146E3,1.7151377E3,1.8695996E2,0E0,0E0,0E0,7.5204736E2,1.1456741E2,5.5499496E0,1.9480469E1,2.5208813E2,1.3061655E2,0E0,4.5876627E0,0E0,0E0,1.7536377E1,0E0,0E0,0E0,0E0,0E0,0E0,0E0,0E0,0E0],"parents":[2147483647,0,0,1,1,2,2,3,3,4,4,5,5,9,9,10,10,11,11,12,12,13,13,14,14,16,16,19,19],"right_children":[2,4,6,8,10,12,-1,-1,-1,14,16,18,20,22,24,-1,26,-1,-1,28,-1,-1,-1,-1,-1,-1,-1,-1,-1],"split_conditions":[5.1899033E1,-1.0827097E1,8.102082E1,-2.3014243E-3,2.3611288E-1,2.828706E0,1.7964518E0,-2.3191774E0,-3.8250324E-1,2.6991596E0,4.8734655E0,6.137449E0,4.2547413E1,4.205103E1,-1.466523E-2,6.4825845E-1,-1.1534876E-2,6.740723E-2,3.0979005E-1,2.5845142E1,2.307068E-1,-3.6184692E-1,-1.1015242E0,7.9711914E-2,-3.38739E-1,5.3344727E-3,1.4215699E-1,9.113062E-1,2.4399415E-1],"split_indices":[4,6,4,0,3,5,0,0,0,6,3,3,6,4,0,0,0,0,0,7,0,0,0,0,0,0,0,0,0],"split_type":[0,0,0,0,0,0,0,0,0,0,0,0,0,0,0,0,0,0,0,0,0,0,0,0,0,0,0,0,0],"sum_hessian":[4.3E1,2.7E1,1.6E1,5E0,2.2E1,1.4E1,2E0,3E0,2E0,1.8E1,4E0,3E0,1.1E1,9E0,9E0,2E0,2E0,1E0,2E0,1E1,1E0,3E0,6E0,2E0,7E0,1E0,1E0,9E0,1E0],"tree_param":{"num_deleted":"0","num_feature":"8","num_nodes":"29","size_leaf_vector":"1"}},{"base_weights":[-6.0879517E-1,-1.1899743E1,1.9002768E1,-3.3460327E1,-5.172921E0,1.3911321E1,1.7365723E0,-3.6975098E-1,-2.2322114E0,-8.940157E0,8.670263E0,7.6191E0,1.6891571E1,-2.2049153E0,-1.1562764E1,6.26652E-1,1.917399E0,4.3835694E-1,4.697266E-2,2.3789673E-1,8.972621E-1,1.2899171E-1,-1.8389161E-1,-6.8818605E-1,-1.8599447E-2,5.2001956E-3,1.3860475E-1],"categories":[],"categories_nodes":[],"categories_segments":[],"categories_sizes":[],"default_left":[0,0,0,0,0,0,0,0,0,0,0,0,0,0,0,0,0,0,0,0,0,0,0,0,0,0,0],"id":35,"left_children":[1,3,5,7,9,11,-1,-1,-1,13,15,17,19,21,23,-1,25,-1,-1,-1,-1,-1,-1,-1,-1,-1,-1],"loss_changes":[9.083452E3,3.5978018E3,7.180654E2,1.4189258E3,1.1726748E3,1.1508276E2,0E0,0E0,0E0,2.7479126E2,1.0639319E2,3.7774628E1,1.6896729E1,5.1773422E1,2.9044495E2,0E0,4.361394E0,0E0,0E0,0E0,0E0,0E0,0E0,0E0,0E0,0E0,0E0],"parents":[2147483647,0,0,1,1,2,2,3,3,4,4,5,5,9,9,10,10,11,11,12,12,13,13,14,14,16,16],"right_children":[2,4,6,8,10,12,-1,-1,-1,14,16,18,20,22,24,-1,26,-1,-1,-1,-1,-1,-1,-1,-1,-1,-1],"split_conditions":[5.1899033E1,-1.0827097E1,8.102082E1,-1.7346107E1,2.3611288E-1,6.648424E1,1.7365723E0,-3.6975098E-1,-2.2322114E0,-1.7155537E1,1.4844961E-2,1.7164072E1,1.1010061E-2,-1.959034E-1,2.3089483E1,6.26652E-1,-5.977756E-1,4.3835694E-1,4.697266E-2,2.3789673E-1,8.972621E-1,1.2899171E-1,-1.8389161E-1,-6.8818605E-1,-1.8599447E-2,5.2001956E-3,1.3860475E-1],"split_indices":[4,6,4,6,3,4,0,0,0,7,2,7,2,1,5,0,1,0,0,0,0,0,0,0,0,0,0],"split_type":[0,0,0,0,0,0,0,0,0,0,0,0,0,0,0,0,0,0,0,0,0,0,0,0,0,0,0],"sum_hessian":[3.9E1,2.5E1,1.4E1,5E0,2E1,1.2E1,2E0,2E0,3E0,1.6E1,4E0,5E0,7E0,5E0,1.1E1,2E0,2E0,4E0,1E0,1E0,6E0,1E0,4E0,9E0,2E0,1E0,1E0],"tree_param":{"num_deleted":"0","num_feature":"8","num_nodes":"27","size_leaf_vector":"1"}},{"base_weights":[2.0701498E-1,-1.1903149E1,1.7405298E1,-3.2221027E1,-5.820856E0,1.3528206E1,1.6786865E0,-2.1485047E0,-3.5743E-1,-8.9605355E-1,-1.8804321E1,1.5049874E1,4.8203125E0,-4.399001E0,8.3908205E0,-3.5425213E-1,-1.1446351E0,7.785091E-1,2.0714723E-1,5.4760743E-2,2.84847E-1,-2.3941041E-3,-4.7336632E-1,7.1730345E-1,1.6577454E-1],"categories":[],"categories_nodes":[],"categories_segments":[],"categories_sizes":[],"default_left":[0,0,0,0,0,0,0,0,0,0,0,0,0,0,0,0,0,0,0,0,0,0,0,0,0],"id":36,"left_children":[1,3,5,7,9,11,-1,-1,-1,13,15,17,19,21,23,-1,-1,-1,-1,-1,-1,-1,-1,-1,-1],"loss_changes":[9.579509E3,3.1490864E3,7.3685156E2,1.309855E3,1.3898523E3,1.5271411E2,0E0,0E0,0E0,5.8994556E2,1.25281494E2,1.4942871E1,6.8227234E0,2.8623422E2,1.0356E2,0E0,0E0,0E0,0E0,0E0,0E0,0E0,0E0,0E0,0E0],"parents":[2147483647,0,0,1,1,2,2,3,3,4,4,5,5,9,9,10,10,11,11,12,12,13,13,14,14],"right_children":[2,4,6,8,10,12,-1,-1,-1,14,16,18,20,22,24,-1,-1,-1,-1,-1,-1,-1,-1,-1,-1],"split_conditions":[5.1899033E1,-1.0827097E1,8.102082E1,-2.3014243E-3,4.486914E1,2.446052E-2,1.6786865E0,-2.1485047E0,-3.5743E-1,2.3611288E-1,-1.1596419E-2,4.2405624E1,2.5516236E-2,-4.4433924E-4,1.30399065E-2,-3.5425213E-1,-1.1446351E0,7.785091E-1,2.0714723E-1,5.4760743E-2,2.84847E-1,-2.3941041E-3,-4.7336632E-1,7.1730345E-1,1.6577454E-1],"split_indices":[4,6,4,0,4,2,0,0,0,3,0,3,2,0,2,0,0,0,0,0,0,0,0,0,0],"split_type":[0,0,0,0,0,0,0,0,0,0,0,0,0,0,0,0,0,0,0,0,0,0,0,0,0],"sum_hessian":[4.4E1,2.6E1,1.8E1,5E0,2.1E1,1.6E1,2E0,3E0,2E0,1.6E1,5E0,1.3E1,3E0,1.2E1,4E0,2E0,3E0,1.2E1,1E0,1E0,2E0,7E0,5E0,1E0,3E0],"tree_param":{"num_deleted":"0","num_feature":"8","num_nodes":"25","size_leaf_vector":"1"}},{"base_weights":[4.73787E-1,-1.1904031E1,1.646427E1,-2.0225319E1,-3.2841797E0,1.2168588E1,1.6227295E0,-2.3365814E1,-4.4440004E-1,3.1825086E-1,-1.05686035E1,2.633667E-2,1.2962524E1,-3.9718425E-1,-1.3591288E0,-3.1529543E-1,3.1117117E0,-5.955851E-1,-1.6348267E-1,1.4801691E1,4.6641846E0,-3.4973144E-3,1.8268229E-1,7.7369875E-1,2.0197144E-1,5.3393554E-2,2.7534994E-1],"categories":[],"categories_nodes":[],"categories_segments":[],"categories_sizes":[],"default_left":[0,0,0,0,0,0,0,0,0,0,0,0,0,0,0,0,0,0,0,0,0,0,0,0,0,0,0],"id":37,"left_children":[1,3,5,7,9,11,-1,13,-1,15,17,-1,19,-1,-1,-1,21,-1,-1,23,25,-1,-1,-1,-1,-1,-1],"loss_changes":[7.717228E3,1.5115984E3,7.727925E2,1.8397754E2,3.1826306E2,1.3181592E2,0E0,2.549707E2,0E0,1.8616113E2,2.6571655E-1,0E0,1.4463062E2,0E0,0E0,0E0,1.2325302E1,0E0,0E0,1.7082275E1,6.243332E0,0E0,0E0,0E0,0E0,0E0,0E0],"parents":[2147483647,0,0,1,1,2,2,3,3,4,4,5,5,7,7,9,9,10,10,12,12,16,16,19,19,20,20],"right_children":[2,4,6,8,10,12,-1,14,-1,16,18,-1,20,-1,-1,-1,22,-1,-1,24,26,-1,-1,-1,-1,-1,-1],"split_conditions":[5.1899033E1,-8.083109E0,8.102082E1,6.063156E-3,-5.042075E0,-1.629718E-2,1.6227295E0,-1.25452795E1,-4.4440004E-1,3.322425E1,1.3163223E-2,2.633667E-2,2.446052E-2,-3.9718425E-1,-1.3591288E0,-3.1529543E-1,-2.7597085E-2,-5.955851E-1,-1.6348267E-1,4.2405624E1,2.5516236E-2,-3.4973144E-3,1.8268229E-1,7.7369875E-1,2.0197144E-1,5.3393554E-2,2.7534994E-1],"split_indices":[4,5,4,0,7,0,0,3,0,4,2,0,2,0,0,0,0,0,0,3,2,0,0,0,0,0,0],"split_type":[0,0,0,0,0,0,0,0,0,0,0,0,0,0,0,0,0,0,0,0,0,0,0,0,0,0,0],"sum_hessian":[3.7E1,2.1E1,1.6E1,1E1,1.1E1,1.4E1,2E0,7E0,3E0,8E0,3E0,1E0,1.3E1,2E0,5E0,2E0,6E0,2E0,1E0,1E1,3E0,1E0,5E0,9E0,1E0,1E0,2E0],"tree_param":{"num_deleted":"0","num_feature":"8","num_nodes":"27","size_leaf_vector":"1"}},{"base_weights":[-1.7625788E0,-1.2020796E1,1.5236989E1,-3.0225245E1,-7.7273355E0,1.0994043E1,1.5686361E0,-3.4118653E-3,-1.8873719E0,-1.9319422E0,-1.907663E1,6.290985E0,1.4322845E1,-5.652231E0,8.127197E0,-3.258952E-1,-2.2176554E1,2.5677491E-2,7.0429688E0,4.0860596E-1,9.215271E-1,-7.4576244E-2,-4.502738E-1,7.1047974E-1,1.5270996E-1,-1.3603302E0,-4.0388185E-1,5.2056886E-2,3.9348754E-1],"categories":[],"categories_nodes":[],"categories_segments":[],"categories_sizes":[],"default_left":[0,0,0,0,0,0,0,0,0,0,0,0,0,0,0,0,0,0,0,0,0,0,0,0,0,0,0,0,0],"id":38,"left_children":[1,3,5,7,9,11,-1,-1,-1,13,15,17,19,21,23,-1,25,-1,27,-1,-1,-1,-1,-1,-1,-1,-1,-1,-1],"loss_changes":[7.8561113E3,1.9549216E3,8.18959E2,1.1316582E3,1.541712E3,1.447284E2,0E0,0E0,0E0,6.8212616E2,1.6690454E2,3.1139404E1,5.150598E1,1.6794232E2,1.1088104E2,0E0,2.0574414E2,0E0,2.6541962E1,0E0,0E0,0E0,0E0,0E0,0E0,0E0,0E0,0E0,0E0],"parents":[2147483647,0,0,1,1,2,2,3,3,4,4,5,5,9,9,10,10,11,11,12,12,13,13,14,14,16,16,18,18],"right_children":[2,4,6,8,10,12,-1,-1,-1,14,16,18,20,22,24,-1,26,-1,28,-1,-1,-1,-1,-1,-1,-1,-1,-1,-1],"split_conditions":[5.1899033E1,-1.6865728E-2,8.102082E1,-2.7597085E-2,4.486914E1,6.648424E1,1.5686361E0,-3.4118653E-3,-1.8873719E0,2.3611288E-1,-1.1596419E-2,-1.629718E-2,1.5564819E-2,-4.4433924E-4,1.30399065E-2,-3.258952E-1,7.158704E-3,2.5677491E-2,-1.6527536E1,4.0860596E-1,9.215271E-1,-7.4576244E-2,-4.502738E-1,7.1047974E-1,1.5270996E-1,-1.3603302E0,-4.0388185E-1,5.2056886E-2,3.9348754E-1],"split_indices":[4,0,4,0,4,4,0,0,0,3,0,0,2,0,2,0,0,0,5,0,0,0,0,0,0,0,0,0,0],"split_type":[0,0,0,0,0,0,0,0,0,0,0,0,0,0,0,0,0,0,0,0,0,0,0,0,0,0,0,0,0],"sum_hessian":[4.3E1,2.7E1,1.6E1,4E0,2.3E1,1.4E1,2E0,1E0,3E0,1.6E1,7E0,7E0,7E0,1.2E1,4E0,2E0,5E0,1E0,6E0,4E0,3E0,6E0,6E0,1E0,3E0,3E0,2E0,1E0,5E0],"tree_param":{"num_deleted":"0","num_feature":"8","num_nodes":"29","size_leaf_vector":"1"}},{"base_weights":[2.625899E-1,-1.0899583E1,1.5523322E1,-1.59609375E1,-1.2053223E0,1.1997774E1,1.5163493E0,1.21557616E-1,-1.726239E1,-5.27417E0,1.2919225E0,8.5286057E-1,8.468242E0,-1.8343733E1,-2.6055908E-2,-3.0230713E-1,-7.39563E-2,3.485742E0,-2.7950847E0,5.075684E-2,4.5267558E-1,-1.3089203E0,-7.1017665E-1,-3.326416E-3,2.195221E-1,-7.4584964E-3,-2.0217286E-1],"categories":[],"categories_nodes":[],"categories_segments":[],"categories_sizes":[],"default_left":[0,0,0,0,0,0,0,0,0,0,0,0,0,0,0,0,0,0,0,0,0,0,0,0,0,0,0],"id":39,"left_children":[1,3,5,7,9,11,-1,-1,13,15,17,-1,19,21,-1,-1,-1,23,25,-1,-1,-1,-1,-1,-1,-1,-1],"loss_changes":[7.664286E3,1.25648E3,6.2777295E2,4.4888672E2,1.08422905E2,1.5913208E2,0E0,0E0,2.8008984E2,2.775673E0,7.250604E1,0E0,4.3154358E1,1.1473047E2,0E0,0E0,0E0,1.6360775E1,9.306097E0,0E0,0E0,0E0,0E0,0E0,0E0,0E0,0E0],"parents":[2147483647,0,0,1,1,2,2,3,3,4,4,5,5,8,8,9,9,10,10,12,12,13,13,17,17,18,18],"right_children":[2,4,6,8,10,12,-1,-1,14,16,18,-1,20,22,-1,-1,-1,24,26,-1,-1,-1,-1,-1,-1,-1,-1],"split_conditions":[5.1899033E1,1.4418727E-2,8.102082E1,-1.9907001E1,-1.8340631E1,-5.2813343E-3,1.5163493E0,1.21557616E-1,2.3089483E1,-5.156317E-3,-5.120652E0,8.5286057E-1,-1.6527536E1,-1.0827097E1,-2.6055908E-2,-3.0230713E-1,-7.39563E-2,-2.7597085E-2,-1.1534876E-2,5.075684E-2,4.5267558E-1,-1.3089203E0,-7.1017665E-1,-3.326416E-3,2.195221E-1,-7.4584964E-3,-2.0217286E-1],"split_indices":[4,2,4,7,7,0,0,0,5,0,7,0,5,6,0,0,0,0,0,0,0,0,0,0,0,0,0],"split_type":[0,0,0,0,0,0,0,0,0,0,0,0,0,0,0,0,0,0,0,0,0,0,0,0,0,0,0],"sum_hessian":[4.3E1,2.5E1,1.8E1,1.6E1,9E0,1.6E1,2E0,1E0,1.5E1,3E0,6E0,5E0,1.1E1,1.4E1,1E0,2E0,1E0,4E0,2E0,1E0,1E1,3E0,1.1E1,1E0,3E0,1E0,1E0],"tree_param":{"num_deleted":"0","num_feature":"8","num_nodes":"27","size_leaf_vector":"1"}},{"base_weights":[3.646351E-1,-9.574436E0,1.5252984E1,-2.8303385E1,-4.0313387E0,8.012126E0,2.0244457E1,-1.9036988E0,-2.9207358E-1,-7.9770813E0,5.563407E0,3.878418E0,1.2209656E1,2.430263E1,4.0407714E-1,-1.0384859E1,1.8424683E0,7.1047366E-1,1.7541504E0,3.717041E-3,4.6243653E0,6.9705E-1,1.7539063E-1,3.4083253E-1,1.3040426E0,-6.24565E-1,4.001872E-2,-1.9095866E-2,2.1289062E-1,-9.80306E-2,2.0508423E-1,4.9487304E-2,2.642792E-1],"categories":[],"categories_nodes":[],"categories_segments":[],"categories_sizes":[],"default_left":[0,0,0,0,0,0,0,0,0,0,0,0,0,0,0,0,0,0,0,0,0,0,0,0,0,0,0,0,0,0,0,0,0],"id":40,"left_children":[1,3,5,7,9,11,13,-1,-1,15,17,19,21,23,-1,25,27,-1,29,-1,31,-1,-1,-1,-1,-1,-1,-1,-1,-1,-1,-1,-1],"loss_changes":[6.6569985E3,2.688942E3,4.8836475E2,1.0943887E3,8.772645E2,1.0880817E2,2.9718945E2,0E0,0E0,3.974265E2,2.0562001E2,1.6682068E1,1.1361084E1,3.9873535E1,0E0,3.1629102E2,2.311676E1,0E0,6.0365E1,0E0,6.7850037E0,0E0,0E0,0E0,0E0,0E0,0E0,0E0,0E0,0E0,0E0,0E0,0E0],"parents":[2147483647,0,0,1,1,2,2,3,3,4,4,5,5,6,6,9,9,10,10,11,11,12,12,13,13,15,15,16,16,18,18,20,20],"right_children":[2,4,6,8,10,12,14,-1,-1,16,18,20,22,24,-1,26,28,-1,30,-1,32,-1,-1,-1,-1,-1,-1,-1,-1,-1,-1,-1,-1],"split_conditions":[1.1229672E0,-1.0827097E1,1.787971E1,-2.3014243E-3,-1.2057338E0,3.0734034E1,8.089788E0,-1.9036988E0,-2.9207358E-1,2.3089483E1,1.30399065E-2,-1.629718E-2,1.234036E-2,-4.481165E0,4.0407714E-1,1.5405449E-2,-6.2850015E-3,7.1047366E-1,-1.1281167E-2,3.717041E-3,6.137449E0,6.9705E-1,1.7539063E-1,3.4083253E-1,1.3040426E0,-6.24565E-1,4.001872E-2,-1.9095866E-2,2.1289062E-1,-9.80306E-2,2.0508423E-1,4.9487304E-2,2.642792E-1],"split_indices":[7,6,6,0,3,3,3,0,0,5,2,0,0,3,0,2,0,0,0,0,3,0,0,0,0,0,0,0,0,0,0,0,0],"split_type":[0,0,0,0,0,0,0,0,0,0,0,0,0,0,0,0,0,0,0,0,0,0,0,0,0,0,0,0,0,0,0,0,0],"sum_hessian":[4.3E1,2.6E1,1.7E1,5E0,2.1E1,8E0,9E0,3E0,2E0,1.5E1,6E0,5E0,3E0,6E0,3E0,1.2E1,3E0,1E0,5E0,1E0,4E0,2E0,1E0,1E0,5E0,1E1,2E0,2E0,1E0,2E0,3E0,1E0,3E0],"tree_param":{"num_deleted":"0","num_feature":"8","num_nodes":"33","size_leaf_vector":"1"}},{"base_weights":[-6.4457667E-1,-9.871175E0,1.4047349E1,-1.9807886E1,-3.8023818E0,1.0230973E1,1.4223388E0,-1.8323059E0,-3.6781704E-1,8.85376E-1,-1.6167627E1,3.6254884E-3,1.0951399E1,8.853125E0,-3.187036E0,-2.7054036E-1,-1.076762E0,8.5765994E-1,7.700617E0,2.0696412E-1,6.927124E-1,-4.6863404E-1,4.014544E-2,4.824829E-2,4.1388425E-1],"categories":[],"categories_nodes":[],"categories_segments":[],"categories_sizes":[],"default_left":[0,0,0,0,0,0,0,0,0,0,0,0,0,0,0,0,0,0,0,0,0,0,0,0,0],"id":41,"left_children":[1,3,5,7,9,11,-1,-1,-1,13,15,-1,17,19,21,-1,-1,-1,23,-1,-1,-1,-1,-1,-1],"loss_changes":[5.9675933E3,1.552887E3,6.4317334E2,1.8270386E3,1.0576893E3,1.0898218E2,0E0,0E0,0E0,4.8248663E2,1.7216907E2,0E0,1.5015955E2,6.052591E1,2.5432922E2,0E0,0E0,0E0,3.4768616E1,0E0,0E0,0E0,0E0,0E0,0E0],"parents":[2147483647,0,0,1,1,2,2,3,3,4,4,5,5,9,9,10,10,12,12,13,13,14,14,18,18],"right_children":[2,4,6,8,10,12,-1,-1,-1,14,16,-1,18,20,22,-1,-1,-1,24,-1,-1,-1,-1,-1,-1],"split_conditions":[5.1899033E1,-1.3863201E1,8.102082E1,-2.3014243E-3,4.486914E1,-1.629718E-2,1.4223388E0,-1.8323059E0,-3.6781704E-1,-7.2554455E0,-1.1596419E-2,3.6254884E-3,-5.2813343E-3,9.985114E-3,3.5424202E1,-2.7054036E-1,-1.076762E0,8.5765994E-1,-1.6527536E1,2.0696412E-1,6.927124E-1,-4.6863404E-1,4.014544E-2,4.824829E-2,4.1388425E-1],"split_indices":[4,5,4,0,4,0,0,0,0,5,0,0,0,0,4,0,0,0,5,0,0,0,0,0,0],"split_type":[0,0,0,0,0,0,0,0,0,0,0,0,0,0,0,0,0,0,0,0,0,0,0,0,0],"sum_hessian":[4.2E1,2.6E1,1.6E1,9E0,1.7E1,1.4E1,2E0,3E0,6E0,1.3E1,4E0,1E0,1.3E1,4E0,9E0,2E0,2E0,3E0,1E1,3E0,1E0,3E0,6E0,1E0,9E0],"tree_param":{"num_deleted":"0","num_feature":"8","num_nodes":"25","size_leaf_vector":"1"}},{"base_weights":[5.400565E-1,-8.752779E0,1.4720861E1,-2.4704346E1,-5.598038E0,1.1183935E1,1.3749268E0,-1.4972942E0,-2.2449341E-1,4.5352608E-1,-1.3510425E1,7.6541346E-1,7.5909424E0,-2.8751998E0,9.494141E0,-1.5769409E1,-1.4914958E-1,4.7039796E-2,4.1126576E-1,-5.7773437E-2,-5.0181276E-1,6.7539674E-1,1.8267822E-1,-3.8422364E-1,-1.0966614E0],"categories":[],"categories_nodes":[],"categories_segments":[],"categories_sizes":[],"default_left":[0,0,0,0,0,0,0,0,0,0,0,0,0,0,0,0,0,0,0,0,0,0,0,0,0],"id":42,"left_children":[1,3,5,7,9,11,-1,-1,-1,13,15,-1,17,19,21,23,-1,-1,-1,-1,-1,-1,-1,-1,-1],"loss_changes":[5.6636035E3,1.1701038E3,4.6075122E2,2.893667E2,1.1074207E3,1.0607617E2,0E0,0E0,0E0,4.486097E2,1.9077307E2,0E0,3.4448364E1,1.23869385E2,4.4419373E1,2.3012732E2,0E0,0E0,0E0,0E0,0E0,0E0,0E0,0E0,0E0],"parents":[2147483647,0,0,1,1,2,2,3,3,4,4,5,5,9,9,10,10,12,12,13,13,14,14,15,15],"right_children":[2,4,6,8,10,12,-1,-1,-1,14,16,-1,18,20,22,24,-1,-1,-1,-1,-1,-1,-1,-1,-1],"split_conditions":[5.1899033E1,-1.0827097E1,8.102082E1,-2.3014243E-3,4.1520702E1,-5.2813343E-3,1.3749268E0,-1.4972942E0,-2.2449341E-1,9.96433E-4,2.6991596E0,7.6541346E-1,-1.9145752E1,-3.4373061E-4,-3.8673642E-1,-2.580378E0,-1.4914958E-1,4.7039796E-2,4.1126576E-1,-5.7773437E-2,-5.0181276E-1,6.7539674E-1,1.8267822E-1,-3.8422364E-1,-1.0966614E0],"split_indices":[4,6,4,0,4,0,0,0,0,0,6,0,6,0,1,6,0,0,0,0,0,0,0,0,0],"split_type":[0,0,0,0,0,0,0,0,0,0,0,0,0,0,0,0,0,0,0,0,0,0,0,0,0],"sum_hessian":[4.1E1,2.5E1,1.6E1,3E0,2.2E1,1.4E1,2E0,2E0,1E0,1.3E1,9E0,5E0,9E0,1E1,3E0,7E0,2E0,1E0,8E0,9E0,1E0,1E0,2E0,4E0,3E0],"tree_param":{"num_deleted":"0","num_feature":"8","num_nodes":"25","size_leaf_vector":"1"}},{"base_weights":[-2.2533017E-1,-9.553886E0,1.2743517E1,-2.5391846E1,-4.324805E0,9.352356E0,1.3290935E0,-2.6258954E-1,-1.7074463E0,3.0028076E0,-1.3614421E1,2.918506E0,1.1253764E1,1.0574544E1,4.3100587E-1,-1.626845E1,-1.4417724E-1,2.2303466E-1,4.0348306E-1,8.251343E-1,3.835246E-1,6.5851444E-1,1.3457642E-1,1.3181153E-1,-1.1507324E-1,-3.679535E-1,-1.0555359E0,4.5861818E-2,-1.5600586E-2],"categories":[],"categories_nodes":[],"categories_segments":[],"categories_sizes":[],"default_left":[0,0,0,0,0,0,0,0,0,0,0,0,0,0,0,0,0,0,0,0,0,0,0,0,0,0,0,0,0],"id":43,"left_children":[1,3,5,7,9,11,-1,-1,-1,13,15,17,19,21,23,25,-1,-1,27,-1,-1,-1,-1,-1,-1,-1,-1,-1,-1],"loss_changes":[5.202936E3,1.960635E3,5.9610254E2,8.7886597E2,1.4022955E3,1.628899E2,0E0,0E0,0E0,2.2911838E2,2.0940979E2,1.7593369E1,9.911597E1,2.593866E1,6.632432E1,1.4663599E2,0E0,0E0,1.3889518E0,0E0,0E0,0E0,0E0,0E0,0E0,0E0,0E0,0E0,0E0],"parents":[2147483647,0,0,1,1,2,2,3,3,4,4,5,5,9,9,10,10,11,11,12,12,13,13,14,14,15,15,18,18],"right_children":[2,4,6,8,10,12,-1,-1,-1,14,16,18,20,22,24,26,-1,-1,28,-1,-1,-1,-1,-1,-1,-1,-1,-1,-1],"split_conditions":[5.1899033E1,-1.0827097E1,8.102082E1,-1.7346107E1,4.1520702E1,-1.9580972E-1,1.3290935E0,-2.6258954E-1,-1.7074463E0,1.30399065E-2,1.1413385E0,-5.3990686E-1,-1.022437E-1,-3.8673642E-1,-4.5729403E0,-9.816589E0,-1.4417724E-1,2.2303466E-1,-2.5115347E-1,8.251343E-1,3.835246E-1,6.5851444E-1,1.3457642E-1,1.3181153E-1,-1.1507324E-1,-3.679535E-1,-1.0555359E0,4.5861818E-2,-1.5600586E-2],"split_indices":[4,6,4,6,4,1,0,0,0,2,5,1,1,1,5,5,0,0,1,0,0,0,0,0,0,0,0,0,0],"split_type":[0,0,0,0,0,0,0,0,0,0,0,0,0,0,0,0,0,0,0,0,0,0,0,0,0,0,0,0,0],"sum_hessian":[4.1E1,2.4E1,1.7E1,5E0,1.9E1,1.5E1,2E0,2E0,3E0,1.1E1,8E0,4E0,1.1E1,2E0,9E0,6E0,2E0,2E0,2E0,3E0,8E0,1E0,1E0,5E0,4E0,3E0,3E0,1E0,1E0],"tree_param":{"num_deleted":"0","num_feature":"8","num_nodes":"29","size_leaf_vector":"1"}},{"base_weights":[-2.5764218E-1,-8.146267E0,1.2286507E1,-1.3421478E1,-4.337972E-1,8.785547E0,1.28479E0,-1.705874E1,-6.308036E0,1.0215495E1,-3.585205E0,4.2154365E0,1.1363905E1,-3.791321E-1,-1.0018346E0,-7.305115E-1,-2.4892986E0,1.2410889E-1,6.4205325E-1,-4.517792E-1,4.146903E-2,-1.5209961E-2,5.019409E0,3.3871663E-1,7.703644E-1,1.0756836E-1,-1.9238526E-1,1.5622966E-1,-9.083497E-2,4.4714358E-2,2.832788E-1],"categories":[],"categories_nodes":[],"categories_segments":[],"categories_sizes":[],"default_left":[0,0,0,0,0,0,0,0,0,0,0,0,0,0,0,0,0,0,0,0,0,0,0,0,0,0,0,0,0,0,0],"id":44,"left_children":[1,3,5,7,9,11,-1,13,15,17,19,21,23,-1,-1,-1,25,-1,-1,-1,27,-1,29,-1,-1,-1,-1,-1,-1,-1,-1],"loss_changes":[4.3552007E3,1.0926702E3,5.7232007E2,3.063684E2,4.393478E2,1.2884705E2,0E0,1.3026245E2,1.8555801E2,2.9039276E1,1.9804214E2,2.696254E1,6.2642456E1,0E0,0E0,0E0,4.6101288E1,0E0,0E0,0E0,4.5779186E1,0E0,1.0926453E1,0E0,0E0,0E0,0E0,0E0,0E0,0E0,0E0],"parents":[2147483647,0,0,1,1,2,2,3,3,4,4,5,5,7,7,8,8,9,9,10,10,11,11,12,12,16,16,20,20,22,22],"right_children":[2,4,6,8,10,12,-1,14,16,18,20,22,24,-1,-1,-1,26,-1,-1,-1,28,-1,30,-1,-1,-1,-1,-1,-1,-1,-1],"split_conditions":[5.1899033E1,2.6991596E0,8.102082E1,-2.3069546E0,-8.779415E0,6.565799E1,1.28479E0,-9.951098E0,9.373842E-3,-4.4433924E-4,3.5424202E1,-1.629718E-2,1.5564819E-2,-3.791321E-1,-1.0018346E0,-7.305115E-1,-6.226092E0,1.2410889E-1,6.4205325E-1,-4.517792E-1,3.8509964E1,-1.5209961E-2,-1.6527536E1,3.3871663E-1,7.703644E-1,1.0756836E-1,-1.9238526E-1,1.5622966E-1,-9.083497E-2,4.4714358E-2,2.832788E-1],"split_indices":[4,6,4,3,5,4,0,3,2,0,4,0,2,0,0,0,7,0,0,0,4,0,5,0,0,0,0,0,0,0,0],"split_type":[0,0,0,0,0,0,0,0,0,0,0,0,0,0,0,0,0,0,0,0,0,0,0,0,0,0,0,0,0,0,0],"sum_hessian":[4.2E1,2.6E1,1.6E1,1.5E1,1.1E1,1.4E1,2E0,9E0,6E0,2E0,9E0,6E0,8E0,3E0,6E0,1E0,5E0,1E0,1E0,3E0,6E0,1E0,5E0,5E0,3E0,1E0,4E0,2E0,4E0,1E0,4E0],"tree_param":{"num_deleted":"0","num_feature":"8","num_nodes":"31","size_leaf_vector":"1"}},{"base_weights":[-3.7025914E-1,-9.387771E0,1.2675605E1,-1.5296906E0,-5.2915993E0,9.602707E0,1.2419597E0,-2.40448E-1,-1.4732452E1,6.952087E-1,6.383478E0,-3.2823079E0,7.1081057E0,-2.3626302E-1,-1.728064E1,4.359741E-2,3.4237182E-1,-4.944397E-1,-8.9136854E-2,6.26001E-1,1.312561E-1,-1.0579284E0,-3.174927E-1],"categories":[],"categories_nodes":[],"categories_segments":[],"categories_sizes":[],"default_left":[0,0,0,0,0,0,0,0,0,0,0,0,0,0,0,0,0,0,0,0,0,0,0],"id":45,"left_children":[1,3,5,-1,7,9,-1,11,13,-1,15,17,19,-1,21,-1,-1,-1,-1,-1,-1,-1,-1],"loss_changes":[5.1775684E3,2.0965625E3,4.34271E2,0E0,1.0932627E3,1.3280151E2,0E0,3.809833E2,1.2234607E2,0E0,2.2157684E1,1.0125362E2,8.8441025E1,0E0,1.19979126E2,0E0,0E0,0E0,0E0,0E0,0E0,0E0,0E0],"parents":[2147483647,0,0,1,1,2,2,4,4,5,5,7,7,8,8,10,10,11,11,12,12,14,14],"right_children":[2,4,6,-1,8,10,-1,12,14,-1,16,18,20,-1,22,-1,-1,-1,-1,-1,-1,-1,-1],"split_conditions":[5.1899033E1,-1.6865728E-2,8.102082E1,-1.5296906E0,4.486914E1,-5.2813343E-3,1.2419597E0,2.3611288E-1,-1.1596419E-2,6.952087E-1,-1.6527536E1,-9.0240014E-1,1.30399065E-2,-2.3626302E-1,7.158704E-3,4.359741E-2,3.4237182E-1,-4.944397E-1,-8.9136854E-2,6.26001E-1,1.312561E-1,-1.0579284E0,-3.174927E-1],"split_indices":[4,0,4,0,4,0,0,3,0,0,5,1,2,0,0,0,0,0,0,0,0,0,0],"split_type":[0,0,0,0,0,0,0,0,0,0,0,0,0,0,0,0,0,0,0,0,0,0,0],"sum_hessian":[4.2E1,2.5E1,1.7E1,3E0,2.2E1,1.5E1,2E0,1.5E1,7E0,5E0,1E1,1.1E1,4E0,2E0,5E0,1E0,9E0,1E0,1E1,1E0,3E0,3E0,2E0],"tree_param":{"num_deleted":"0","num_feature":"8","num_nodes":"23","size_leaf_vector":"1"}},{"base_weights":[-1.056696E0,-9.275861E0,1.1330756E1,-1.45800495E1,-2.3521839E-1,8.244995E0,1.2005615E0,-1.6198202E0,-1.0044775E1,-4.3306274E0,1.8418884E0,2.4192872E0,9.985291E0,-1.8180502E1,-4.158862E0,-2.4719238E-1,-6.227417E-2,-2.0755208E0,3.4936116E0,-3.2214355E-2,3.3462524E0,7.5140685E-1,6.6345487E0,-2.0847778E-1,-1.007439E0,-2.8878936E-1,7.6961264E-2,3.0517578E-5,-1.5569459E-1,4.1070558E-2,1.9318847E-1,1.9474691E-1,4.2504884E-2,1.9333497E-1,4.037744E-1],"categories":[],"categories_nodes":[],"categories_segments":[],"categories_sizes":[],"default_left":[0,0,0,0,0,0,0,0,0,0,0,0,0,0,0,0,0,0,0,0,0,0,0,0,0,0,0,0,0,0,0,0,0,0,0],"id":46,"left_children":[1,3,5,7,9,11,-1,-1,13,15,17,19,21,23,25,-1,-1,27,29,-1,31,-1,33,-1,-1,-1,-1,-1,-1,-1,-1,-1,-1,-1,-1],"loss_changes":[4.584941E3,1.2913088E3,5.063479E2,1.0482202E3,1.0154916E2,1.3805798E2,0E0,0E0,6.426824E2,1.4100113E0,5.901487E1,1.6355085E1,1.030625E2,8.145325E1,1.0102403E2,0E0,0E0,6.469281E0,2.7610703E0,0E0,2.1673355E0,0E0,4.6692505E0,0E0,0E0,0E0,0E0,0E0,0E0,0E0,0E0,0E0,0E0,0E0,0E0],"parents":[2147483647,0,0,1,1,2,2,3,3,4,4,5,5,8,8,9,9,10,10,11,11,12,12,13,13,14,14,17,17,18,18,20,20,22,22],"right_children":[2,4,6,8,10,12,-1,-1,14,16,18,20,22,24,26,-1,-1,28,30,-1,32,-1,34,-1,-1,-1,-1,-1,-1,-1,-1,-1,-1,-1,-1],"split_conditions":[5.1899033E1,1.4118528E-2,8.102082E1,-1.6865728E-2,-1.8340631E1,-1.9580972E-1,1.2005615E0,-1.6198202E0,-1.3118343E-1,-5.156317E-3,-5.889084E-1,-1.629718E-2,-5.2813343E-3,-1.4067664E-2,2.4272406E0,-2.4719238E-1,-6.227417E-2,-1.1534876E-2,-2.7597085E-2,-3.2214355E-2,-5.3990686E-1,7.5140685E-1,1.1332224E-2,-2.0847778E-1,-1.007439E0,-2.8878936E-1,7.6961264E-2,3.0517578E-5,-1.5569459E-1,4.1070558E-2,1.9318847E-1,1.9474691E-1,4.2504884E-2,1.9333497E-1,4.037744E-1],"split_indices":[4,2,4,0,7,1,0,0,1,0,1,0,0,0,5,0,0,0,0,0,1,0,0,0,0,0,0,0,0,0,0,0,0,0,0],"split_type":[0,0,0,0,0,0,0,0,0,0,0,0,0,0,0,0,0,0,0,0,0,0,0,0,0,0,0,0,0,0,0,0,0,0,0],"sum_hessian":[4.3E1,2.6E1,1.7E1,1.6E1,1E1,1.5E1,2E0,2E0,1.4E1,3E0,7E0,4E0,1.1E1,5E0,9E0,2E0,1E0,2E0,5E0,1E0,3E0,3E0,8E0,1E0,4E0,7E0,2E0,1E0,1E0,1E0,4E0,2E0,1E0,4E0,4E0],"tree_param":{"num_deleted":"0","num_feature":"8","num_nodes":"35","size_leaf_vector":"1"}},{"base_weights":[-4.551734E-2,-7.4706545E0,1.0876479E1,-1.1133545E1,-8.6296386E-1,3.6306152E0,1.5585523E1,-1.3703106E1,9.1552734E-4,6.355347E-1,-3.7834473E0,-3.1408694E-2,4.328753E0,1.1436707E0,9.19451E0,-1.0780559E0,-1.0314276E1,2.0252278E0,-1.5180054E-1,-8.153198E0,-2.397054E-1,4.144287E-2,2.3869629E-1,1.1293335E-1,4.9870202E-1,-1.651437E-1,-9.033691E-1,3.0517578E-5,1.5186158E-1,-1.2153931E-1,-4.6252036E-1,1.1177164E-1,-1.0180664E-1],"categories":[],"categories_nodes":[],"categories_segments":[],"categories_sizes":[],"default_left":[0,0,0,0,0,0,0,0,0,0,0,0,0,0,0,0,0,0,0,0,0,0,0,0,0,0,0,0,0,0,0,0,0],"id":47,"left_children":[1,3,5,7,9,11,13,15,17,-1,19,-1,21,-1,23,-1,25,27,-1,29,31,-1,-1,-1,-1,-1,-1,-1,-1,-1,-1,-1,-1],"loss_changes":[3.4062444E3,5.954734E2,5.2347363E2,4.5778345E2,4.4450665E2,2.6504967E1,2.554602E2,1.2379541E2,3.0739365E1,0E0,1.3741306E2,0E0,6.9495087E0,0E0,1.5318787E1,0E0,5.3828735E2,6.144906E0,0E0,2.6289673E0,3.1230078E1,0E0,0E0,0E0,0E0,0E0,0E0,0E0,0E0,0E0,0E0,0E0,0E0],"parents":[2147483647,0,0,1,1,2,2,3,3,4,4,5,5,6,6,7,7,8,8,10,10,12,12,14,14,16,16,17,17,19,19,20,20],"right_children":[2,4,6,8,10,12,14,16,18,-1,20,-1,22,-1,24,-1,26,28,-1,30,32,-1,-1,-1,-1,-1,-1,-1,-1,-1,-1,-1,-1],"split_conditions":[5.1899033E1,2.6991596E0,6.648424E1,1.4418727E-2,-8.779415E0,-1.629718E-2,1.3526518E1,-1.6865728E-2,9.985114E-3,6.355347E-1,2.8711912E-1,-3.1408694E-2,-1.6527536E1,1.1436707E0,1.1010061E-2,-1.0780559E0,4.4045914E1,-1.1534876E-2,-1.5180054E-1,-7.6354546E-3,-1.466523E-2,4.144287E-2,2.3869629E-1,1.1293335E-1,4.9870202E-1,-1.651437E-1,-9.033691E-1,3.0517578E-5,1.5186158E-1,-1.2153931E-1,-4.6252036E-1,1.1177164E-1,-1.0180664E-1],"split_indices":[4,6,4,2,5,0,7,0,0,0,1,0,5,0,2,0,4,0,0,0,0,0,0,0,0,0,0,0,0,0,0,0,0],"split_type":[0,0,0,0,0,0,0,0,0,0,0,0,0,0,0,0,0,0,0,0,0,0,0,0,0,0,0,0,0,0,0,0,0],"sum_hessian":[4E1,2.4E1,1.6E1,1.5E1,9E0,7E0,9E0,1.2E1,3E0,1E0,8E0,1E0,6E0,3E0,6E0,2E0,1E1,2E0,1E0,3E0,5E0,1E0,5E0,1E0,5E0,6E0,4E0,1E0,1E0,1E0,2E0,2E0,3E0],"tree_param":{"num_deleted":"0","num_feature":"8","num_nodes":"33","size_leaf_vector":"1"}},{"base_weights":[-2.4024901E0,-9.244131E0,9.61652E0,-2.4646973E1,-5.3232975E0,1.1393777E1,3.783252E0,-1.4664338E0,-1.4800416E-1,-8.197632E-1,-9.752308E0,1.1010742E-1,1.2092725E1,4.0405273E-2,2.1625061E-1,-4.453369E-1,7.251198E-1,-1.2429535E1,-1.9597778E0,1.5488282E-1,6.373996E-1,-5.839495E-2,1.6151612E-1,-2.9517335E-1,-8.7398684E-1,-1.2167155E-1,-1.3470459E-2],"categories":[],"categories_nodes":[],"categories_segments":[],"categories_sizes":[],"default_left":[0,0,0,0,0,0,0,0,0,0,0,0,0,0,0,0,0,0,0,0,0,0,0,0,0,0,0],"id":48,"left_children":[1,3,5,7,9,11,13,-1,-1,15,17,-1,19,-1,-1,-1,21,23,25,-1,-1,-1,-1,-1,-1,-1,-1],"loss_changes":[3.3780864E3,1.438988E3,1.1240271E2,4.2084253E2,4.308219E2,4.4039185E1,4.5640106E0,0E0,0E0,1.5637961E2,2.0512683E2,0E0,1.9453003E1,0E0,0E0,0E0,5.5939037E1,1.6047266E2,2.5470047E0,0E0,0E0,0E0,0E0,0E0,0E0,0E0,0E0],"parents":[2147483647,0,0,1,1,2,2,3,3,4,4,5,5,6,6,9,9,10,10,12,12,16,16,17,17,18,18],"right_children":[2,4,6,8,10,12,14,-1,-1,16,18,-1,20,-1,-1,-1,22,24,26,-1,-1,-1,-1,-1,-1,-1,-1],"split_conditions":[5.1899033E1,-1.0827097E1,1.5005282E-2,-2.3014243E-3,4.1520702E1,1.1010061E-2,1.5561326E-2,-1.4664338E0,-1.4800416E-1,-9.0240014E-1,1.1413385E0,1.1010742E-1,5.3030685E1,4.0405273E-2,2.1625061E-1,-4.453369E-1,4.9931696E-1,-9.816589E0,1.8084459E0,1.5488282E-1,6.373996E-1,-5.839495E-2,1.6151612E-1,-2.9517335E-1,-8.7398684E-1,-1.2167155E-1,-1.3470459E-2],"split_indices":[4,6,0,0,4,2,0,0,0,1,5,0,4,0,0,0,1,5,1,0,0,0,0,0,0,0,0],"split_type":[0,0,0,0,0,0,0,0,0,0,0,0,0,0,0,0,0,0,0,0,0,0,0,0,0,0,0],"sum_hessian":[3.9E1,2.5E1,1.4E1,4E0,2.1E1,1E1,4E0,3E0,1E0,1.1E1,1E1,1E0,9E0,1E0,3E0,1E0,1E1,7E0,3E0,1E0,8E0,6E0,4E0,4E0,3E0,2E0,1E0],"tree_param":{"num_deleted":"0","num_feature":"8","num_nodes":"27","size_leaf_vector":"1"}},{"base_weights":[-2.6109618E-1,-9.970104E0,1.0994655E1,-2.4070618E1,-6.4768324E0,1.8429382E1,5.1219482E0,-1.4810017E0,-1.8555908E-1,-2.8915842E0,-1.3762939E1,1.4402466E-1,1.0119576E0,1.8099539E0,8.132283E0,-5.215674E0,2.334912E0,-7.65271E-1,-1.5126343E-1,-6.0091144E-1,1.4472412E-1,5.0834656E-1,1.3543294E-1,2.2029622E-2,-3.3424073E-1,1.524994E-1,-1.3134765E-2,-4.6557616E-2,1.4892578E-3],"categories":[],"categories_nodes":[],"categories_segments":[],"categories_sizes":[],"default_left":[0,0,0,0,0,0,0,0,0,0,0,0,0,0,0,0,0,0,0,0,0,0,0,0,0,0,0,0,0],"id":49,"left_children":[1,3,5,7,9,11,13,-1,-1,15,17,-1,-1,19,21,23,25,-1,-1,27,-1,-1,-1,-1,-1,-1,-1,-1,-1],"loss_changes":[4.480905E3,9.27751E2,7.3518286E2,3.420066E2,4.5653082E2,1.668208E2,1.0492349E2,0E0,0E0,1.8223398E2,5.3072876E1,0E0,0E0,2.0041893E1,3.867224E1,8.604379E1,1.0088644E1,0E0,0E0,6.525799E-1,0E0,0E0,0E0,0E0,0E0,0E0,0E0,0E0,0E0],"parents":[2147483647,0,0,1,1,2,2,3,3,4,4,5,5,6,6,9,9,10,10,13,13,14,14,15,15,16,16,19,19],"right_children":[2,4,6,8,10,12,14,-1,-1,16,18,-1,-1,20,22,24,26,-1,-1,28,-1,-1,-1,-1,-1,-1,-1,-1,-1],"split_conditions":[2.3611288E-1,-1.7718784E1,8.089788E0,-1.6865728E-2,6.1335956E-4,-1.9916276E0,6.648424E1,-1.4810017E0,-1.8555908E-1,2.4272406E0,-2.3069546E0,1.4402466E-1,1.0119576E0,-1.1534876E-2,7.170233E1,3.2623375E1,2.736159E0,-7.65271E-1,-1.5126343E-1,-1.629718E-2,1.4472412E-1,5.0834656E-1,1.3543294E-1,2.2029622E-2,-3.3424073E-1,1.524994E-1,-1.3134765E-2,-4.6557616E-2,1.4892578E-3],"split_indices":[3,5,3,0,0,6,4,0,0,5,3,0,0,0,4,4,1,0,0,0,0,0,0,0,0,0,0,0,0],"split_type":[0,0,0,0,0,0,0,0,0,0,0,0,0,0,0,0,0,0,0,0,0,0,0,0,0,0,0,0,0],"sum_hessian":[3.9E1,2.1E1,1.8E1,3E0,1.8E1,7E0,1.1E1,2E0,1E0,1.3E1,5E0,1E0,6E0,6E0,5E0,9E0,4E0,4E0,1E0,2E0,4E0,3E0,2E0,2E0,7E0,3E0,1E0,1E0,1E0],"tree_param":{"num_deleted":"0","num_feature":"8","num_nodes":"29","size_leaf_vector":"1"}},{"base_weights":[-6.525933E-1,-7.2751045E0,1.068302E1,-2.0541708E1,-3.6553242E0,7.8376303E0,1.067448E0,-2.1921794E-1,-1.3762146E0,-6.7273083E0,4.766253E0,2.506897E0,8.961406E0,-1.0560303E1,-2.6048827E0,5.958069E-1,1.5885824E0,1.4326578E-1,3.5791017E-2,1.070639E1,2.1885744E-1,-2.4675702E-1,-8.178986E-1,-4.1506958E-1,-5.2478027E-2,1.7131959E-1,-6.9567874E-2,1.0653076E-1,5.813564E-1],"categories":[],"categories_nodes":[],"categories_segments":[],"categories_sizes":[],"default_left":[0,0,0,0,0,0,0,0,0,0,0,0,0,0,0,0,0,0,0,0,0,0,0,0,0,0,0,0,0],"id":50,"left_children":[1,3,5,7,9,11,-1,-1,-1,13,15,17,19,21,23,-1,25,-1,-1,27,-1,-1,-1,-1,-1,-1,-1,-1,-1],"loss_changes":[3.45588E3,1.317557E3,3.486034E2,5.562439E2,6.529669E2,6.739288E1,0E0,0E0,0E0,2.5691382E2,1.4011009E2,5.167713E-1,4.9130005E1,2.1278662E2,7.988626E1,0E0,3.76267E1,0E0,0E0,3.8395325E1,0E0,0E0,0E0,0E0,0E0,0E0,0E0,0E0,0E0],"parents":[2147483647,0,0,1,1,2,2,3,3,4,4,5,5,9,9,10,10,11,11,12,12,13,13,14,14,16,16,19,19],"right_children":[2,4,6,8,10,12,-1,-1,-1,14,16,18,20,22,24,-1,26,-1,-1,28,-1,-1,-1,-1,-1,-1,-1,-1,-1],"split_conditions":[5.1899033E1,-1.0827097E1,8.102082E1,-1.7346107E1,-1.2057338E0,9.323439E0,1.067448E0,-2.1921794E-1,-1.3762146E0,2.6991596E0,1.30399065E-2,1.5337685E-2,7.170233E1,-9.816589E0,-9.0240014E-1,5.958069E-1,-4.5729403E0,1.4326578E-1,3.5791017E-2,-5.3990686E-1,2.1885744E-1,-2.4675702E-1,-8.178986E-1,-4.1506958E-1,-5.2478027E-2,1.7131959E-1,-6.9567874E-2,1.0653076E-1,5.813564E-1],"split_indices":[4,6,4,6,3,7,0,0,0,6,2,2,4,5,1,0,5,0,0,1,0,0,0,0,0,0,0,0,0],"split_type":[0,0,0,0,0,0,0,0,0,0,0,0,0,0,0,0,0,0,0,0,0,0,0,0,0,0,0,0,0],"sum_hessian":[4.4E1,2.8E1,1.6E1,5E0,2.3E1,1.4E1,2E0,2E0,3E0,1.7E1,6E0,3E0,1.1E1,8E0,9E0,1E0,5E0,2E0,1E0,7E0,4E0,5E0,3E0,1E0,8E0,3E0,2E0,1E0,6E0],"tree_param":{"num_deleted":"0","num_feature":"8","num_nodes":"29","size_leaf_vector":"1"}},{"base_weights":[4.8493143E-2,-6.9596324E0,1.0168647E1,-1.2603912E0,-3.4834409E0,8.059973E0,1.1504029E0,-1.5047546E1,-9.9644774E-1,1.1117767E1,4.8077393E0,-1.5877686E-1,-8.9731854E-1,-4.8204346E0,4.212918E0,2.281128E-1,1.2542562E1,2.4420166E0,3.3425292E-1,1.0474243E-1,-2.8197688E-1,5.809143E-1,9.174805E-2,2.6816E-1,7.3957217E-1,3.0706787E-2,1.3423829E-1],"categories":[],"categories_nodes":[],"categories_segments":[],"categories_sizes":[],"default_left":[0,0,0,0,0,0,0,0,0,0,0,0,0,0,0,0,0,0,0,0,0,0,0,0,0,0,0],"id":51,"left_children":[1,3,5,-1,7,9,-1,11,13,15,17,-1,-1,19,21,-1,23,25,-1,-1,-1,-1,-1,-1,-1,-1,-1],"loss_changes":[3.1204722E3,1.5614796E3,3.0189014E2,0E0,6.464824E2,1.1560791E2,0E0,8.0670105E1,4.18719E2,1.7499756E1,2.8087128E1,0E0,0E0,7.978592E1,1.3716771E2,0E0,1.7543701E1,1.0134888E0,0E0,0E0,0E0,0E0,0E0,0E0,0E0,0E0,0E0],"parents":[2147483647,0,0,1,1,2,2,4,4,5,5,7,7,8,8,9,9,10,10,13,13,14,14,16,16,17,17],"right_children":[2,4,6,-1,8,10,-1,12,14,16,18,-1,-1,20,22,-1,24,26,-1,-1,-1,-1,-1,-1,-1,-1,-1],"split_conditions":[6.3366055E0,-1.6865728E-2,2.736159E0,-1.2603912E0,1.2602468E-2,-1.022437E-1,1.1504029E0,-1.4067664E-2,-1.2057338E0,-2.6989598E0,5.2975386E-1,-1.5877686E-1,-8.9731854E-1,-1.959034E-1,1.30399065E-2,2.281128E-1,-1.629718E-2,-2.7597085E-2,3.3425292E-1,1.0474243E-1,-2.8197688E-1,5.809143E-1,9.174805E-2,2.6816E-1,7.3957217E-1,3.0706787E-2,1.3423829E-1],"split_indices":[5,0,1,0,2,1,0,0,3,3,1,0,0,1,2,0,0,0,0,0,0,0,0,0,0,0,0],"split_type":[0,0,0,0,0,0,0,0,0,0,0,0,0,0,0,0,0,0,0,0,0,0,0,0,0,0,0],"sum_hessian":[4.2E1,2.5E1,1.7E1,3E0,2.2E1,1.6E1,1E0,3E0,1.9E1,7E0,9E0,1E0,2E0,1.1E1,8E0,2E0,5E0,5E0,4E0,1E0,1E1,1E0,7E0,2E0,3E0,1E0,4E0],"tree_param":{"num_deleted":"0","num_feature":"8","num_nodes":"27","size_leaf_vector":"1"}},{"base_weights":[1.0401057E0,-4.584129E0,9.418674E0,-1.433623E1,-2.264797E0,6.8446198E0,1.0003704E0,-9.8594564E-1,-2.0874023E-1,-4.3848686E0,6.2444334E0,1.0843059E1,4.041415E0,-2.644357E0,-7.7152505E0,5.6639403E-1,2.1416016E0,5.8168945E0,6.965129E-1,3.259888E-2,4.315161E0,-2.6772732E-2,-2.683492E-1,-4.5186034E-1,-2.763672E-2,8.972168E-4,1.421753E-1,-6.6625975E-2,4.322103E-1,2.2622883E-1,6.0760498E-2],"categories":[],"categories_nodes":[],"categories_segments":[],"categories_sizes":[],"default_left":[0,0,0,0,0,0,0,0,0,0,0,0,0,0,0,0,0,0,0,0,0,0,0,0,0,0,0,0,0,0,0],"id":52,"left_children":[1,3,5,7,9,11,-1,-1,-1,13,15,17,19,21,23,-1,25,27,-1,-1,29,-1,-1,-1,-1,-1,-1,-1,-1,-1,-1],"loss_changes":[2.1165898E3,5.78227E2,3.5366443E2,1.9115613E2,4.4230508E2,1.3551373E2,0E0,0E0,0E0,8.973291E1,8.002286E1,1.2069763E1,7.3928986E0,7.751077E1,5.181604E1,0E0,5.911392E0,9.237305E1,0E0,0E0,9.934845E-1,0E0,0E0,0E0,0E0,0E0,0E0,0E0,0E0,0E0,0E0],"parents":[2147483647,0,0,1,1,2,2,3,3,4,4,5,5,9,9,10,10,11,11,12,12,13,13,14,14,16,16,17,17,20,20],"right_children":[2,4,6,8,10,12,-1,-1,-1,14,16,18,20,22,24,-1,26,28,-1,-1,30,-1,-1,-1,-1,-1,-1,-1,-1,-1,-1],"split_conditions":[5.1899033E1,-1.0827097E1,7.827622E1,-2.3014243E-3,2.3611288E-1,-5.2813343E-3,1.0003704E0,-9.8594564E-1,-2.0874023E-1,5.947256E-4,1.30399065E-2,-1.5148757E-2,-1.6527536E1,3.9891937E1,1.2407552E-2,5.6639403E-1,-1.1534876E-2,-1.9580972E-1,6.965129E-1,3.259888E-2,4.5288902E1,-2.6772732E-2,-2.683492E-1,-4.5186034E-1,-2.763672E-2,8.972168E-4,1.421753E-1,-6.6625975E-2,4.322103E-1,2.2622883E-1,6.0760498E-2],"split_indices":[4,6,4,0,3,0,0,0,0,0,2,0,5,4,0,0,0,1,0,0,5,0,0,0,0,0,0,0,0,0,0],"split_type":[0,0,0,0,0,0,0,0,0,0,0,0,0,0,0,0,0,0,0,0,0,0,0,0,0,0,0,0,0,0,0],"sum_hessian":[4.3E1,2.6E1,1.7E1,4E0,2.2E1,1.5E1,2E0,2E0,2E0,1.8E1,4E0,5E0,1E1,1.3E1,5E0,1E0,3E0,3E0,2E0,1E0,9E0,8E0,5E0,4E0,1E0,1E0,2E0,1E0,2E0,8E0,1E0],"tree_param":{"num_deleted":"0","num_feature":"8","num_nodes":"31","size_leaf_vector":"1"}},{"base_weights":[-3.5228407E-1,-6.606899E0,9.3966875E0,-1.8616617E1,-3.186672E0,6.9449463E0,9.670207E-1,-1.2449096E0,-2.0178223E-1,7.0017785E-1,-8.309595E0,1.0477946E1,4.386497E0,-1.8666549E0,7.5839233E0,-1.0965925E1,-7.918091E-2,5.6174927E0,6.732951E-1,3.1781007E-2,4.6980224E0,-2.284668E-2,-3.990967E-1,5.522339E-1,1.3743897E-1,-1.406901E-1,-6.832007E-1,-6.495972E-2,4.17806E-1,1.4087525E-1,3.0075195E-1],"categories":[],"categories_nodes":[],"categories_segments":[],"categories_sizes":[],"default_left":[0,0,0,0,0,0,0,0,0,0,0,0,0,0,0,0,0,0,0,0,0,0,0,0,0,0,0,0,0,0,0],"id":53,"left_children":[1,3,5,7,9,11,-1,-1,-1,13,15,17,19,21,23,25,-1,27,-1,-1,29,-1,-1,-1,-1,-1,-1,-1,-1,-1,-1],"loss_changes":[2.8060059E3,1.0908018E3,3.0451196E2,4.4906885E2,4.6379492E2,9.866254E1,0E0,0E0,0E0,2.6152847E2,1.6129834E2,1.149231E1,9.867294E0,9.118201E1,3.657361E1,1.1551819E2,0E0,8.662514E1,0E0,0E0,7.8193207E0,0E0,0E0,0E0,0E0,0E0,0E0,0E0,0E0,0E0,0E0],"parents":[2147483647,0,0,1,1,2,2,3,3,4,4,5,5,9,9,10,10,11,11,12,12,13,13,14,14,15,15,17,17,20,20],"right_children":[2,4,6,8,10,12,-1,-1,-1,14,16,18,20,22,24,26,-1,28,-1,-1,30,-1,-1,-1,-1,-1,-1,-1,-1,-1,-1],"split_conditions":[5.1899033E1,-1.0827097E1,8.102082E1,-2.3014243E-3,4.1520702E1,-5.2813343E-3,9.670207E-1,-1.2449096E0,-2.0178223E-1,9.96433E-4,1.1413385E0,-1.5148757E-2,-1.6527536E1,-3.4373061E-4,-3.8673642E-1,-8.261905E0,-7.918091E-2,-1.9580972E-1,6.732951E-1,3.1781007E-2,1.1332224E-2,-2.284668E-2,-3.990967E-1,5.522339E-1,1.3743897E-1,-1.406901E-1,-6.832007E-1,-6.495972E-2,4.17806E-1,1.4087525E-1,3.0075195E-1],"split_indices":[4,6,4,0,4,0,0,0,0,0,5,0,5,0,1,6,0,1,0,0,0,0,0,0,0,0,0,0,0,0,0],"split_type":[0,0,0,0,0,0,0,0,0,0,0,0,0,0,0,0,0,0,0,0,0,0,0,0,0,0,0,0,0,0,0],"sum_hessian":[4.4E1,2.7E1,1.7E1,5E0,2.2E1,1.5E1,2E0,3E0,2E0,1.3E1,9E0,5E0,1E1,1E1,3E0,6E0,3E0,3E0,2E0,1E0,9E0,9E0,1E0,1E0,2E0,2E0,4E0,1E0,2E0,5E0,4E0],"tree_param":{"num_deleted":"0","num_feature":"8","num_nodes":"31","size_leaf_vector":"1"}},{"base_weights":[-3.983794E-1,-6.499213E0,9.921677E0,-2.0247314E1,-3.2279212E0,7.7232423E0,1.0724548E0,-1.1982269E0,-1.3446045E-1,6.8436104E-1,-8.382324E0,9.886108E0,4.5949707E0,-1.8115901E0,7.377136E0,-9.873596E0,-1.6114908E0,2.0022786E-1,1.1179199E1,1.1423584E-1,3.1670228E-1,-2.1813964E-2,-3.8911745E-1,5.3842777E-1,1.3285726E-1,-2.1671632E-1,-7.164642E-1,-9.589233E-2,-2.4969483E-2,2.3688965E-1,6.6077274E-1],"categories":[],"categories_nodes":[],"categories_segments":[],"categories_sizes":[],"default_left":[0,0,0,0,0,0,0,0,0,0,0,0,0,0,0,0,0,0,0,0,0,0,0,0,0,0,0,0,0,0,0],"id":54,"left_children":[1,3,5,7,9,11,-1,-1,-1,13,15,17,19,21,23,25,27,-1,29,-1,-1,-1,-1,-1,-1,-1,-1,-1,-1,-1,-1],"loss_changes":[2.7088428E3,1.1489429E3,2.3981982E2,2.6189136E2,4.6954254E2,5.6064148E1,0E0,0E0,0E0,2.472321E2,8.50603E1,1.6075317E1,1.7670135E1,8.693285E1,3.5416245E1,1.3534229E2,6.434345E-2,0E0,1.6085938E1,0E0,0E0,0E0,0E0,0E0,0E0,0E0,0E0,0E0,0E0,0E0,0E0],"parents":[2147483647,0,0,1,1,2,2,3,3,4,4,5,5,9,9,10,10,11,11,12,12,13,13,14,14,15,15,16,16,18,18],"right_children":[2,4,6,8,10,12,-1,-1,-1,14,16,18,20,22,24,26,28,-1,30,-1,-1,-1,-1,-1,-1,-1,-1,-1,-1,-1,-1],"split_conditions":[5.1899033E1,-1.0827097E1,2.386709E0,-2.3014243E-3,4.1520702E1,-1.022437E-1,1.0724548E0,-1.1982269E0,-1.3446045E-1,9.96433E-4,1.1413385E0,5.6828716E1,5.2975386E-1,-3.4373061E-4,-3.8673642E-1,-9.816589E0,-1.1596419E-2,2.0022786E-1,1.787971E1,1.1423584E-1,3.1670228E-1,-2.1813964E-2,-3.8911745E-1,5.3842777E-1,1.3285726E-1,-2.1671632E-1,-7.164642E-1,-9.589233E-2,-2.4969483E-2,2.3688965E-1,6.6077274E-1],"split_indices":[4,6,1,0,4,1,0,0,0,0,5,4,1,0,1,5,0,0,6,0,0,0,0,0,0,0,0,0,0,0,0],"split_type":[0,0,0,0,0,0,0,0,0,0,0,0,0,0,0,0,0,0,0,0,0,0,0,0,0,0,0,0,0,0,0],"sum_hessian":[4.1E1,2.6E1,1.5E1,4E0,2.2E1,1.4E1,1E0,3E0,1E0,1.3E1,9E0,7E0,7E0,1E1,3E0,7E0,2E0,2E0,5E0,4E0,3E0,9E0,1E0,1E0,2E0,4E0,3E0,1E0,1E0,2E0,3E0],"tree_param":{"num_deleted":"0","num_feature":"8",